#Conv
-0.28789816208154956 0.3533147465361774 0.2654446524524631 0.02443106530352227 7.821842751917205 -4.369677022864722 0.6709579424251365 -1.722190807134593 -0.47390702160824577 
#Pool
#FCL 169 0
#FCL 100 169
0.08544535358170653 0.10900427031718958 -1.5829831372976502 -0.7652957526371243 -1.972713447392726 -1.6964213674980564 1.3239437390211954 1.6630625325887416 0.21324351920715953 0.10071168220470014 -0.9472848581014734 -0.37377863363070046 0.8352595812779197 -0.5185594648584493 -0.06934142382539736 -1.0242696615544522 -1.4396979018929112 -1.1506838574159883 1.9711433822125175 1.9950737400457141 0.9138114855783066 4.124310650317996 -0.022152235050503337 1.138012537456894 -0.21250878010662222 1.05586770990626 -0.23238407543339953 -2.567291220782038 0.8280097074867461 -0.1259580127455175 0.06899556716332605 2.0021794240843906 4.702932211007641 1.6175889927493008 3.6803766180375903 3.070763840615851 -0.40708292420472064 -0.28916825772395827 -0.7368148118736955 0.43592500595796896 -1.1606939691966647 -0.5865669966033167 -3.3726739529982646 2.9762221418970927 0.6155598778425567 -2.5331047859084017 0.4362551565947317 1.46544865862064 -0.10383199755869314 -2.3316761404034443 -0.20204352489410268 -1.1913052189034117 -0.8620668564618504 -1.3115663970878295 1.618750455009831 -1.5506902084179717 0.15001935236719366 -0.2880872625862472 -5.179442866567662 -3.9953125743761326 -1.3461771869116073 -0.5296672101579798 -1.7531650240914791 -2.4606946078022833 1.4286360545192063 -0.07804561683384104 0.4020678404761367 -0.116939303202259 3.0071081345467783 -0.5574320106281337 -1.3646725253978877 -7.065032126564392 -3.488762813775717 -3.7817741112438554 -2.302692244215029 -2.8410896737914784 0.5944449879088453 -0.029622378225237247 -0.8694073433920374 0.504225268264912 -1.1593858970691415 1.6340748568184142 0.9601968039213427 -4.203493684767251 2.5284463214374013 2.3829411760541954 -1.1352935456396536 -1.7116261359122094 0.27773145630764745 0.6825280502451673 0.037815479525940575 -1.9287373872369302 -0.36349610467309734 -1.5510481847295148 0.10768738621405834 -2.5914138049557405 -1.4751465185126151 1.98070919914691 2.9441542169687986 0.3287186892467355 2.848610873816826 -1.6670215385322456 1.3252762383020802 -1.0948280841485865 0.3469055981618275 0.6186402922199945 -0.4556866750394597 0.5469133140625946 0.08257170545028149 -1.3910016975665283 0.2844781911889964 0.1934663122041052 3.1293160851115007 -0.161878089228138 0.5347597092638738 3.208294985124407 0.09134536591253496 0.2686405845321425 0.3270408805041944 -1.7933308246336241 -2.273633653437371 -0.7084989478296111 -2.6404708079214028 0.0466257350733924 0.38652128205449243 -0.2706151834924012 -1.3853895393072382 0.7713248257492655 -0.6094656313274781 -1.2810407314923675 -0.06420378864983477 1.2407302394416377 -0.4776658963569635 0.49861356372366417 -2.3080215629941017 -2.0487789709851456 -0.8590375886590821 -0.1692626302771586 -1.7567212313356688 -2.24671459066896 0.09449482785520588 -0.6855121693726034 -1.5668041150636798 -0.9267917504234677 -2.3041260075097147 -1.4245092056001776 -1.066305926561413 -1.4805939520268392 -2.842036299299004 -1.6518148812290048 0.6609138468165942 1.9141413745574274 0.7003121283001743 -0.8749087102765687 0.7671968604678463 -2.1537642225604934 0.06216810349279895 -1.7278335680402992 -1.4599650983117618 -2.200364103140858 -0.39350033165578097 -1.432335102131878 1.1401617923703509 0.19452927786227342 -3.2596586219912544 0.48076212699878806 -0.21071346432999816 -1.021254533820317 0.45457825023709386 
-0.03624313872009567 -0.5256123087831116 -0.11007655644762274 0.705862504336472 1.0868784380611058 0.6374438911607851 1.5496495081889188 0.549507989251622 2.8414224020230714 -0.9360425963551381 -0.6652085944870555 0.775096675658242 -0.3284336250543014 0.5388389105701411 0.8675227532637281 0.4697429080824538 1.3736082498509996 3.91132284777459 1.150952936374807 1.0343945725092833 3.5120061648871466 1.1764174397155969 1.223183390968062 -0.6938951213834125 -1.2232304339117972 0.2161011068568775 0.9132847389907011 0.7950930900102098 1.524097616435856 0.9981850417893183 -0.24827664850554232 -0.778851048521366 1.5149733246136243 0.40780629338100244 1.4692074238405672 -0.5809807732122867 -1.1270834096057154 -1.798122824280127 -0.4103342814389588 0.094921995501849 2.661767748820451 2.7138748989590655 0.6403583292394338 1.5354017706509566 1.80641189322671 2.1996196798229346 -0.09860249942743336 1.9804994950445267 0.07776067243737898 -0.24386199352398724 -0.5587737880163405 0.9951296774573939 -0.0074159247947533 3.2294086117206393 2.929855648428308 4.1494152231722445 3.7854631534849585 1.1970877983984145 1.979403707431592 2.0582426703034167 -0.1498792575232147 -0.5067940486843004 -1.0570783132553498 -1.545080041127189 0.7793208371742891 -0.7939743088420068 2.4398364517205398 2.6876388246385234 4.155678309859581 2.2004931729651087 -0.7019112829656167 -0.5042815409059092 -0.10893701043191424 -2.700850601640282 -1.5120973570574692 -3.2161103568893123 -1.643619902972795 -0.014640218665243156 -1.201638029579519 -0.6004003295983901 1.6225401901051477 1.321761884808823 -1.3023560129408676 -0.2359781185622777 -2.95869934938938 -0.5093753773913369 -1.7815424967976508 1.2013737497501238 0.42999302701198444 1.6267122843032855 -1.0196000131943213 1.0473517177895437 -1.644398164395181 -0.3735473710493813 0.11369122236017541 -2.1215015531584007 -3.4371440502633783 -2.408405161961003 0.8969640173351423 -0.03904130742861452 1.834447463111424 -1.189950819245628 -0.21023807048941803 -1.1703103129346473 1.8786979759811198 2.9841393808632355 0.7763679145724162 1.3184570442187473 -0.420022720898551 -0.04743745730489663 -0.6657859120122485 2.2162778064278847 2.3127503328980397 0.2103208341887262 3.9670549957940433 -0.966198742691046 -0.4555293100587993 0.7660509774004064 3.8516618003729426 1.6625087434549648 2.545929683285703 -0.1856983099684618 -0.4683554841864511 -0.5845549938115618 -2.1360011250879376 0.7836600030972496 -1.5314678733718572 1.4556301332999921 1.2522481198551838 2.564128746646445 -0.04793649035132348 0.13386216886839228 5.310660727607896 1.0558421117869936 -0.7265214016442058 -0.10050976431463607 -0.16031326137227822 -2.530178065959849 1.5043730690314403 -1.221868525012023 -0.74738174476903 -0.06060865636972255 1.667159548877004 -0.34668578239101094 1.8470930420623337 1.7087949505447944 1.2766093631396263 0.7869777234764037 -1.6347756883699427 -0.4385814226318094 0.15111674000341 -1.157194941700905 -0.8629283764032666 -0.6171429496098064 0.19679584764548605 1.1980734393919859 -0.3559422873878211 3.4766478513359877 1.9091826970252967 0.16224202372594004 1.49401369504799 0.4993987525173722 -0.7535848497961011 0.9929246221373458 1.2834258978982054 1.181450030791075 0.8216003799053528 0.1365939386187861 -0.04395537316506174 
0.20255610646829136 0.9213662251353089 1.5652766532292872 1.7449704463240325 0.4845503767509187 -2.4823357117520706 -2.0997336024725746 -0.31190683205806213 -0.7285537302260121 0.6542699941538701 0.5111565074427459 1.1691920818822261 0.8893762795871806 -0.13163839197959168 -0.4823295468832883 0.5084332033179165 4.091205228288147 1.6158472621259896 -1.8941615350304466 -3.442394430600556 -1.424312757681887 0.5586659135301725 0.5555393027406338 3.160783980297921 2.4194381290309015 0.6895643343034431 0.6687940156892631 0.5950843985933252 -0.9165468693015151 -0.11164842835874063 -2.85064239963713 -1.7690571835457223 -3.0642500979566676 -0.831030094106387 1.1442346486347996 3.6783811194362386 0.41699183426706327 2.7168282505463597 0.09695991480573142 -0.4195473110374191 0.45488589359831166 -0.13267215332422627 -0.5583683244357983 1.0179190591693887 -0.9525372753431971 -3.7244443517948147 -2.4805980418589195 0.6547359458034394 1.0398191845187863 2.57036357642521 0.14368391935351263 0.5578083237546724 -0.12328943234371217 2.7764875818843615 0.6243636182615293 -2.7534434913660455 -2.0260015677536525 -2.5589468239435735 -1.7652894066182518 -0.09124182140988046 3.023990016109018 2.225048738331926 0.6249946805928802 0.34484835934787716 -0.9606645807849229 1.2576859592225502 -0.1684573319217394 -1.0995211660335042 0.5953843801622025 -1.025227002160789 -1.748637948266888 -0.5437411833292597 0.8455394428560942 -1.7711383065968918 1.0149565876176891 -3.0321679292847112 -3.06397319699085 -0.19386443882913557 -1.0954823876389428 -1.4199241210449303 -1.2026740666819131 -3.24364387371398 -0.954375736926255 -1.5114164103095882 -5.1655259671827505 -2.497838977728784 0.9786018118650528 -0.5773778109664266 -3.5622229114881225 -3.7163591153915205 -1.8722585864770926 -1.392398884345985 1.7576678764674842 -0.6309359504204934 -1.2748789528027793 -0.9605312150875737 -1.9350280336291252 -0.23261275966679698 1.6700350620892643 3.7815478091592567 0.1763832062612251 4.012259513983964 0.382917114436195 -1.7910670428895206 -1.4919731543085555 0.26079837193686 -1.2600108592024895 1.6926019083151258 1.6435776438150071 0.7323287319087761 -2.5284332164954137 1.3757432958854012 3.557919869441214 5.658695100409789 3.886768353548863 3.367293029248821 2.306547680284854 1.403039556036064 0.7092684195443846 0.27568217519929855 -0.45360453828798103 0.5188893981608846 0.5168526982860995 -3.213096247943069 -2.0729073936165476 2.609677855875983 1.4514177192808697 3.831633856005626 3.4829633633180164 1.6290048537192787 -0.5492286265243552 -0.81385451877405 -1.1783461643809086 -0.7046675413547416 -2.0306487247901663 0.6175355191251904 -2.232402246383675 -2.5547537947862344 1.4565905460032413 -1.0550968809989496 2.3875846565808914 1.5502889118560865 0.3968186514581987 -1.0244391074475614 -2.8998860884213062 -3.151233560970119 -0.6679616338974769 0.8493649124316578 -0.23767340862327155 -2.2251685102332526 0.3041048079882396 0.7883569058366081 1.047090704277708 1.5728560483518343 2.4179389399133426 -0.43906860830897393 0.41032166983735785 -1.412044962437589 -2.9466561489859093 -1.7717800345603294 1.7160199760875448 1.4564980367912677 0.585010674818929 1.8338898311405811 2.6937705855401677 -0.8293894855581235 0.0826951974020484 -0.23992248222489054 -0.3615629807554263 
-0.04111703285032207 -0.12562720244403816 0.6052121043354157 -0.27227095644720434 -2.4429170485927636 -1.436803762593773 0.6632352191438701 -0.38798930397739906 -1.8621727217739805 -0.8196081357458681 -0.18041126919913608 -2.2946034738988326 -2.0205047577868784 0.05288435709150848 -0.38010626442413387 0.1913018834008535 0.881033534377992 0.6885158195498472 0.23750842384932838 -0.28435464263197957 -0.4481408508228551 -2.303735460168327 -0.02990365877765322 -1.142895441808642 -2.928879833216155 -2.4386375616038487 0.0016303662162014284 0.6863804201704605 0.1075100973806969 -0.5515373912914274 0.5032842368103074 -1.2548270525328342 -1.9208995229824886 -1.6822246614761454 -4.262470067727168 -1.109559341839805 -4.8177265003105445 -0.7270853237188458 0.5406234876390763 0.31822768059494105 -2.6212873157305543 -0.6286855549957509 -1.1847266324444479 -1.2562474689771121 -3.58446246406409 -6.212264685161823 -2.9509002520619028 -2.692903880127361 -3.465807522351765 -2.9469166402533116 -2.867957590165124 -1.966843778339504 0.8479055525252066 1.3824903637914454 -0.25703686708949874 -0.9438869483582651 0.46919704285509184 -0.9474656125671778 -0.32876569560147717 0.8204617150579719 2.4493657172678875 2.1183904474069055 0.9478438195877963 -1.718765466258239 -0.353150605054121 -0.7272869421823798 0.8196317915153493 -0.8264338142377584 -0.02012469102405191 -0.23400090523189304 -1.815715681870521 -0.0072171516180492 3.140351331521383 4.025260062485592 5.053196349759976 1.625843241514172 0.059746669709657 -1.5247217670912918 -0.052365957120808465 -0.6033902401266557 -0.14221775411665866 0.9286020072347232 -0.7732241048885337 -0.6367042148424289 -1.5208591505880271 0.5680404736729555 1.6515290401569414 -0.7697884175489637 1.868891809693665 -1.0948585113034952 0.7900447079292636 0.08582820375458966 -1.5695661956912579 -0.561075311550781 2.340285866959412 -0.306519669085341 -0.5836561918770659 2.3125649651397926 -1.3665238718832722 0.985927552073779 1.7938170093944172 2.230009470201659 -0.2278061923055628 -0.04896559283015374 -2.324449342645311 -0.30279639141776876 2.8481219256952075 -1.9881583659751842 -0.9017116004966537 0.4474965334116794 -0.4616002005321222 -1.8631096356797392 -1.7173997878586462 0.21640673901156615 -0.9595144250828093 -0.2907808976694224 0.2537085377957345 -0.28212265648863666 0.6875628877531054 0.1430416897038527 -0.09521560846968538 1.3773858917832948 0.563558620979475 -1.0875238455927294 -0.38608156059306203 0.50869864668499 2.3612152107602964 1.982532939603099 -2.035968691963286 -0.4367202746069972 -0.026190260259243342 0.009979055870112725 1.9583144558308394 -0.8277104606464765 0.7436432045634449 -0.3936380627056496 -1.1538491826969615 -0.6395500733380828 -1.0030673819376341 3.5052731387703435 1.046263505010944 1.4988433632694873 0.7926040982742172 -1.4090945330989084 1.416442879487458 -0.3422811683330583 -0.2313630964667549 -0.6779873273664535 1.2999072403414929 1.6444205519102133 -0.6586855478068143 1.4126659538617115 0.5641660283144256 -1.0061952930549154 -1.3768678622327009 -0.6499103928264486 -0.9370614607034842 -1.6355187290733053 -1.3267089661825475 0.7392469259456014 -0.47036043676330336 -0.5814203910870869 -0.5845815831531227 0.4611737277195175 1.5264264917737775 1.3199831804387496 -0.3921323661348634 0.4864625695937416 -0.6818585141609227 
-0.02151624488452672 0.10446075035713064 -0.22157590397042112 1.7056192571666886 1.377616145030461 1.0282233385267558 -0.7673445969260235 -1.7369841570256355 0.4627872782959736 -0.7300608738377261 0.1173190913130321 -1.1961238877171383 -2.00545675994723 -0.029954381795800525 0.7221878864660215 0.8105766688001435 -0.6461241485041762 0.9989770940197554 2.062599490685987 0.21891466479194663 -1.69112018077898 0.5555851182853282 -0.9268742777012 -0.8270828830916901 0.009218578703846531 -0.028247193158813487 0.29550782078662097 1.0940582526264575 2.437430263576171 -0.949024766969307 0.07576595549391181 -1.2580613219251364 -1.0563535951525738 0.6910966393204034 -1.066725439652299 1.3115497893372907 -2.9422836538497195 -2.56264852771328 0.7428647378678309 0.0636215688217795 1.2445775635537115 -0.25080026587795784 0.48884548809678985 0.4109059642340064 -1.1061722227140434 -0.02118335461837989 1.6360310101086222 -0.6720308454618212 2.046398645267779 -0.9444019405930809 0.19067107674407954 0.7107610383477643 -0.8892178311716639 -1.280369129362865 1.0244185135352792 0.33768359460423863 1.5208440869354376 0.06117825613293924 3.100195004805738 -0.8567743152783465 0.9287200348382224 -0.9921605231725356 1.3884352972094856 -0.1190061352479918 -1.1148767207995407 0.5272663509481468 -1.6946615227985469 -0.15206203198597992 -1.9898350001323188 0.883027895252221 -0.7438449181718523 -0.3471132447560704 1.3292613064586496 0.6068159031326766 -0.6538704464626599 0.9928986430948561 -0.019089226597737936 0.711664817142654 -0.6379865933901315 -0.600692474952222 -0.7678079006679538 3.469005258824947 -2.703668736632208 -1.3855472142253968 -0.7852366556941647 -2.6667941485981985 -3.5996935808929464 0.8174932239523951 0.8738274818862685 0.4843107402500395 0.6785541967535285 3.6268298842086284 -1.3995636141452652 0.8896699789041598 -2.233514521557364 -2.016490504570291 -2.2568460301624738 -3.091924582032135 -4.6469666420692475 -1.5709637354998032 0.05460001281621006 1.3817175126148407 -1.1454844508439537 2.0549267169711682 2.9162731844963377 1.490657779800221 1.5092567576271387 0.7602574549214703 1.7627217019557464 -1.5990240320545719 -1.5424124566410085 -1.94534812206747 3.677499631624294 2.2533431465069027 1.8110744512251302 -1.111919919976001 2.6747817792526996 0.35948408635600604 0.6006049915398843 1.8420544911128578 -0.5534878764271871 5.138212980843754 3.1008922183717726 3.4087328334934845 5.45386624481968 3.3681343477954337 1.8153581271908519 0.3349994019881114 2.101023812291786 2.382512336911063 1.1105180440073046 1.2603159482621276 1.855931428591293 2.5975481187052614 0.9220633990568351 4.323548713282741 1.5567926962233405 1.238901936266348 0.6835298498600387 -1.3964438232547967 1.409033524731745 1.1616112708883404 0.0772829453775108 1.115045664524668 0.10340604279075548 2.2905259493661108 0.10009346292197202 1.4937468582619595 3.8795298527843207 4.213189969865352 2.9624234115332433 -1.1765416315813697 1.0465502511725306 1.3570839709319833 1.9286275195935512 -1.3142716134572916 1.212631620492905 1.7012977826321398 -0.9496110858299168 4.618093690156781 3.6731497515279785 2.178139704833456 0.08331908152698216 -1.7304374750957012 0.5765218623495443 1.4474022889302955 -0.11214536004068565 0.46717779121123926 -0.5145153816790724 
-3.9765969969325605E-4 0.009537883288057878 -1.0304451926967684 0.5167734718428743 2.4089898206397953 1.2245834830131996 -0.6030993995787974 -2.8660348246617064 0.5869682443948507 2.1475391440440315 -2.373311569282887 -0.7842840465904021 -0.973187503128034 -0.5946105512797235 -1.1546877605901704 -1.8406411529698625 1.8982562429707388 2.5049456068677554 0.894804731326063 -1.635015891409234 -3.1711182276621934 -0.49755838662833973 0.33269277657588237 -0.33417200319873314 -1.749345447440943 0.2632213217142008 -0.776896052600352 -1.7477394212541846 -0.8440869686967062 3.439290355207733 3.6107885661909416 -0.3167876290195992 -1.255884269817627 -3.075178000554749 -1.2808392098267602 -0.7793713914398178 -0.629472521423327 -0.605258955483465 -0.6690604554449446 -0.19191665483457443 -3.198806257560845 -0.6204862446901636 1.241311406046646 2.699686515669445 0.9512066579778297 -2.3144868801887086 -1.1481145066697538 -1.3242196269010604 -2.02583585187821 -0.9992631901201129 -0.8320058009141358 0.41773519269943343 0.09259526244289207 -2.684518880471649 -2.8093005429525864 0.04098919638953183 0.6848109746065191 -0.5816079712705591 -0.7727068760957053 -0.6700603525294523 0.41561091011990847 -2.4744374811093386 -0.8745316732812806 -0.5575206575982256 -0.36796413068021233 -1.6625672827915017 -2.404607308232094 -2.759553203959006 -1.2172927982234996 1.6201993672615376 2.600863521521992 -0.18450524835723825 -2.0272601718059433 -1.6065131602500333 -0.7542403138055545 -1.626182974881086 0.3846948918701888 0.038271844790370955 -1.8209351717417488 -3.210221415787148 0.5811356042252314 -0.9437743391584559 -0.2782310770240994 4.483315978998776 3.8696483888584066 5.0179781398513095 5.593015361175935 0.4809377443583951 -0.8039009669998123 1.8850577353151516 -2.421096063773843 -0.02069850007063525 -0.5620923227273894 -3.204120888070012 -2.997044437671938 -0.46792040923169004 0.06051066457318982 -1.557132973652851 -1.5672273264705736 -1.6030489894499849 0.4420844111723982 -0.21258684924715535 -0.8555625222938885 -1.0608952663967692 1.9376437931744357 -1.8453776338181633 -1.3518633431649196 -2.907104761924922 -3.3887640046705285 -0.7120397431845393 -2.320569411650356 -0.058862017895334295 -1.421295214765728 2.5551116906479847 0.1288025725694282 2.1866489258636976 0.6102426522130853 -0.851993793260023 0.5562547954037319 1.6520491076897517 0.39460558942468343 2.634240127649953 0.17746859217079916 0.31361255545599503 0.7360991486833548 -0.3644557775556883 -0.710909768370192 -1.2919787106256606 -1.3769180961979735 0.04679346091992197 -0.9106188736957215 -1.308410814250317 -1.008496816139 -0.06879513422470264 -0.3969091455890554 2.2138952635022977 0.40012133804662203 0.6742905504025941 0.045339825696117185 0.5129366077827139 0.7036446099357208 1.318920767238561 -1.6604385608932402 -0.6612124433915583 2.136274033714182 1.3610577387941365 -1.328706015998626 1.0526044701897193 0.9078079727761206 -0.6695848232805212 0.8675808285715234 0.8270824788833497 -0.4890818853509021 -0.8129318264655266 -0.5431035598313985 1.2542587695784857 -0.036111783702894446 -0.2949684417031605 -1.0005708476011825 0.18964129296196566 0.6887215648787671 1.228598956850756 1.1975177295202037 -1.44626647813941 0.28837931304081044 0.9631365920360554 -1.372228390299213 -2.06413589447568 0.9582765872369408 
0.20117090861704537 -0.1608753623642698 -2.6815874611194754 -2.8659997129958548 0.2147250251399842 -0.9071872538749961 -1.4025712656381626 -0.26181545506302767 -0.08576067857188846 0.9089414637115516 1.248391131314488 -0.28215869292173257 1.3918758171290264 1.089387309548615 -0.1956761229364978 -1.1956116305815523 -1.250769040717846 0.329546449677055 -0.002098519074235571 0.21000581971480056 2.267156737228791 0.8108823654812422 -1.0690877709385733 1.388942558070116 0.6830883555926883 0.05693880195362818 0.9314746102737733 -0.28157836031876066 -1.6126020336999782 -1.18356082699247 0.3555234926942 -1.0618485283933001 -1.1507356270404048 -0.9454550390268894 0.026454401273984695 -0.41574138225355906 1.0906872431963375 -0.6968677120079416 0.7587273713894954 -1.2108685915907427 -0.3454408016063954 -1.9610687683137689 0.6740604350960415 -1.3400304698275005 -0.6896585900776429 -0.011501569785992576 -0.6511796365117444 0.36435580925439937 -0.24066413183658936 0.704884360989943 -2.6013645000061083 2.1833305108303263 -0.49778858375181495 0.014234262282606025 1.3267608342219044 -2.1791162489151397 -0.5445829288624067 1.6980090571825062 -1.3378026859782832 -2.1113730567208275 2.011312914254698 -1.6836435798334708 -1.4767284874420898 -2.5544981745410134 1.0537462225739336 0.5580889716307811 -2.7266280896349016 1.0764577560887791 0.9117886428007739 0.14211283626394128 -0.20560402811106826 -0.9236467026203974 0.5692182663418497 -0.933313445618202 -0.10878787049572437 3.4092323177096167 -0.7539522985484381 -1.5651519960489835 -0.18191139308055726 -0.29812198861140043 0.902572127266264 -0.5023363402613865 -2.858527834759676 0.9893644476658267 0.44719812683059695 0.04047457661578109 -3.543072862943308 -1.5915401547704986 4.851086951022951 3.436753833609736 2.15789973216903 2.3148569543707747 -2.338813307740299 0.13643635401191936 0.3533028759359678 -0.5447413575064082 -1.5670237864446996 -0.2912626828027383 -0.44941931574418414 -0.5835426332817496 0.9463237341172531 3.225069791929228 1.4104705037991605 2.8122493562073307 -1.3610390078166903 -1.9692807199434132 -1.055674180951277 -1.890308600331112 0.19245752378610395 1.0149556225148466 1.1691183106246972 1.0322477603104487 0.39433567044896956 1.446637223162551 4.468337696413143 5.948399154387279 2.3748525101797844 1.24677051405817 -1.3354037027793924 -0.5309860165632351 0.9286202014534307 0.30893644282997346 -0.11708412503156755 -0.8801141075667144 0.23640876378238074 2.3096983580695643 6.602131473185455 4.657101210689715 2.5435996972955643 2.4524651389325727 1.2113446653648758 -0.1794300141145702 1.8812356775987216 0.3828667963252984 0.47596649609883146 2.4475851862095226 -0.8208648534494714 1.3580293325496107 0.11269708638786619 5.192614957739664 3.6333714679306186 1.6718272358779698 2.5689789319288048 -0.3229459113954521 -0.12963734948480216 -1.6439762801236413 -0.6132548110352772 -0.5881553104771755 -0.5528813724242639 0.3337943012854343 1.0952397417596353 2.3441691971102756 5.358156735451339 1.3121568173535458 1.2851984922997488 1.5830769653433259 0.7336717159512802 1.2721759619571968 0.0980945517329738 -0.46660420951574083 0.32651743028322633 -1.8918353271895758 1.1654960113571817 2.3329039647188714 4.153535501280607 2.8524070525336835 0.37696421376101236 -0.552251763647741 1.057997232328701 
0.10095880739441332 1.1692007445978614 2.169728520957803 -0.002178618207343498 -1.6779638169059177 -1.8597191981263588 1.1713859891392038 2.8678763598958015 0.8763681194049157 3.1549105273902907 -1.0384980049089283 -0.36799099838719185 -1.861688271466729 0.6145837042209025 1.6062452773452542 -0.7867853261112611 -2.999794482830003 -2.0179469747678116 -2.2491730063798463 1.1262791055010344 6.463317604429601 2.051776409711958 1.710948237273768 -2.5570280793461757 -2.3741339959514214 -1.0499144260787499 0.792348185383631 0.7784530555963871 0.7789985888217922 -1.80286244621407 -3.724002559487203 -3.874647885505415 -0.8875415927134074 5.493860943206678 2.3345806615321023 2.712889537367435 -0.4549915488668164 -1.622748548355955 -3.6027482436551796 1.3654463500615548 -0.8191119700256517 3.0385872019943774 1.1676366891745642 -3.1138943528045706 -2.6767922160727764 0.20519851427629132 0.5015936517702593 3.987489960450909 0.8168491388984433 -1.101383979680309 -0.23094123944017475 -0.045928878626870506 0.9757070997762072 -0.9940832404411414 -0.3074627122528063 0.27619731568396266 -2.032200074054116 -4.059684038324635 -1.6206437604291584 -1.9425337989333114 0.5642739461397143 -0.4274372185841206 -0.5304146114438759 0.3656493277728127 -0.6061029818498302 -0.4806141715295288 1.9371765041499691 0.5751866283004735 0.6196441214893779 1.690872427376953 -2.590092003129378 -0.4009874096498008 -2.9340385148058905 -3.1748646317067952 -1.6411169435385091 -0.10690207419295819 -2.1936903308295057 -1.721945474110131 -0.43164720318502653 0.09475716878732186 0.059340769453373236 2.2770557128203732 2.4717889385439347 2.888176774819645 1.0703382244510415 0.06635071147818491 -0.22143606211007666 1.781355396348839 0.5349680257234318 0.8124972398608868 1.2315905487054197 1.875910721113604 -0.9305376242404186 0.08308803060397345 1.5361161847973126 -0.4057042012421456 0.31478890646769964 3.214115311407946 2.2801129541651277 1.923143730752363 4.178301314488452 1.979808385544147 -0.4987125456714822 2.4048123108059 0.5530320302614402 -1.1954988950095717 -0.1829623608483158 -2.7127604792980446 -1.1820658337694263 -1.7739798744832356 0.6914548773120349 2.0677323665148357 1.3761105955075763 0.39411294025745336 2.667676932496338 0.013003302423019582 -1.2491599244862455 0.1253722855770683 0.36113147727817707 -0.6232447134619766 0.7959293474375538 -1.2338891019556009 0.5371107888570568 -1.4001176559431832 1.3450927290349415 -0.16438668801352874 3.2259449406247485 0.49862037600577147 0.8070392565633044 3.707036411641104 0.5408400446107109 0.5282577910383163 1.9333652892783941 -0.527064510379262 -1.463428764280928 0.5210368339633561 -2.1585522078346187 -1.3769317458995722 -0.6120662123415366 4.949380988023094 2.389862707311857 2.5796412847916668 1.5280253268031783 1.666956516076101 1.4738545138762051 -1.5357277491282766 -1.60063117201162 1.2432973484625054 -3.902773660002992 0.2189719308864952 -0.4185254748573726 1.7413163183389861 2.4819317724156176 2.645584035713695 1.2941019915153247 0.7162753669481933 2.6788320011229105 1.6167383904789576 0.3550014365241937 1.004367923559565 -2.6260136499973705 -3.0539842830438273 -0.8956140691050993 0.8300616632412726 1.275755345485668 1.0713227359978714 0.9024905182360006 0.6287512060308916 0.29666109319166906 
-0.23184472167550377 -0.2854652921204942 -0.5866233479858427 0.2362677646780047 -0.23108414740600985 -1.2395261748435347 -0.4386699552137392 -0.36201067616212523 1.4372141021167284 0.3776515214173758 -0.5164174157986248 1.2734640766708893 1.2873268402693598 0.0075811557448619855 0.4345364559498364 -0.8407972779422658 -0.7445960380312281 -0.5358224252710574 0.7296251816044568 0.44148323720189614 -1.608565318532227 -2.496361455195898 0.48998785107764514 -0.757419919451358 -0.520016758269651 1.2830672031757533 -0.6851418502016463 -0.27710957723469143 1.7093597019464977 -1.5392179344553998 2.8804309811092548 0.3284975635059358 3.38931394327638 1.2142067198425885 -4.4380643005536164 -2.6010966240664355 -1.2916960904760069 2.5820329798316806 0.6420898462578802 -2.4749068252360065 -0.8536070045141739 -0.24449536646632689 0.9732235835846659 0.46082415361656903 2.974501621560346 0.43213552843885494 -3.8559203204599344 -2.669200777592811 -2.5815933766439985 1.6856819886079348 -0.6079956760892562 -1.2595375843875578 -1.8226760320925923 0.34177856352779873 0.5716164171100816 1.3174098777060885 1.5556158219341583 3.7218942493506657 1.0835472250765545 -1.0161046594328125 -3.173115652105703 -4.008646497253095 0.26107569614902565 4.038168988660553 -0.33578952587741623 -0.2186294045557973 0.977437997695412 0.5352182399031558 1.5159207301025541 1.116194083821867 0.32797641643220166 0.5839588246696932 0.49722355941621904 -5.734103601327848 -4.45885751750345 -2.120691827297492 1.8102016305733484 1.1181518498885399 1.9677239325508504 2.4487959134593646 3.6042220449108293 0.826265215225326 0.2641476647846441 1.3754390878226896 0.4665875966523877 -1.4869529470644294 -2.5397428232227 -1.4804658496176455 -1.794307240505516 -0.5844476777738576 -0.2309766458880447 2.4849966432017268 4.152137677746695 0.5299828179530819 0.6028695667141554 -0.4475078637738874 1.657600483712022 0.0375595915212353 -1.8612687847185532 -2.669657779739883 -2.5060155528913155 0.4288851213443349 0.5235891336731608 1.92819902343507 4.42798409828824 3.8486752332170138 1.4477572634460432 -0.44730398649542624 0.9630863007150924 2.971245116728877 0.46595595756681213 -2.7742356638509067 -2.121919755405055 -4.554756522103285 -1.2248838381354905 -1.0697293383465702 0.659330903925478 2.4441253797496496 1.852915382331525 2.1229708068710655 -0.49395122727101415 2.6448928480376352 0.22729618899615744 1.27131005575567 -2.0122990622320454 -2.557936811784186 -0.7390502524510385 -1.8109746083495324 3.3582080970710133 -0.677600443590103 -0.9948227652350122 -0.4354742881660304 1.6900102633738243 2.469839742812618 0.5802221068878942 2.8395906470330696 -0.8576224113925357 -3.478194230529592 -2.952429155079826 -1.293264839756779 -0.2589565981024096 -2.932361673328533 -2.086103272045046 0.2840294621151229 -1.0681163467723962 1.2309457019766017 -0.013593194168423868 1.710329033189978 3.4277508667053582 -1.3424593702834078 -3.051936129751604 -3.5962504193097344 -3.313509931188291 -2.0459003172974177 0.09063832433775997 -0.5005287561474845 1.247756615052384 1.673269102046923 2.6529399476412396 3.04013453697978 0.06627386603341683 0.3071089172661509 -1.5192442479810666 -0.32261467661762205 0.20107438143968503 -0.8184809431016592 0.6438235808055609 1.8722801430842795 0.022914997042303077 
-0.0481839826670451 -1.1998911798623138 -1.7563552629350547 -0.40316736628556876 0.2770462723510984 0.7270062807830292 -0.5135180690191046 1.042075350054735 1.7435161534378927 0.6778549897450927 -2.3722410258165567 -2.047433629740058 -0.9381345760261562 -2.0343508713039955 -1.2783730200133887 -0.3809049916552365 1.8084630217134423 -0.17670865140432465 -1.5364212023566204 -0.8203198831127437 4.218005369233063 0.7008208143209731 0.3563587415568009 -0.461710311562668 -1.4571765112784951 -0.25698778715143045 0.19426059076538946 0.8806019038115294 1.9978065379822334 3.829391149694209 0.29984938566096236 0.6480466368675913 1.4754480825189147 -1.2898927779298242 -0.01109399496596995 1.0973598659760893 -1.1834281406286886 0.8255231210721462 0.44487853998247195 -0.34166351173102905 0.4610563585645926 0.7632316023567781 3.7983411108501683 0.6628140869575598 -0.16602389927096284 -2.7543734728744096 -0.9893465365436364 -1.0065134955161064 -1.4088889813494165 -1.9842692092076095 -0.37480724216406264 1.0121538039459796 -0.054468369596992035 2.7401859578312107 2.022590514782372 3.205309743970739 3.604685021238587 -0.8613560007694331 -2.784546794565506 -1.3114842397351334 -3.1733175364803072 0.1663166726613674 1.4471404474803502 -1.161921985969685 -0.7386423254490506 -1.791969425916256 0.9044047100758168 1.0651370976441108 5.699191164328916 4.404840183480476 -0.3318212269166104 -2.487824471088119 -2.0863241146851657 -2.258068162516519 1.3640591749929236 0.9745650751860151 -0.6704676400838093 -2.273001826538985 -0.40338417510175395 -0.6371553558195601 3.55117974664717 4.313536398606101 3.637620632996959 -5.189364155561058 -1.6823866895796344 -0.5154852775871906 1.8366784016609607 -0.3044906067320699 0.6512401860482944 0.6182634458835602 -1.0242095599421632 0.09168802979871704 1.201309288828038 2.639300219441114 7.866739828819159 -1.213580185630895 -1.8615088502586281 -0.4427094346028995 -2.5888263190884326 0.05950775714643844 -0.7325323926360243 1.5917098218949766 -3.5641388703733057 -0.478250940608504 1.4729999195391001 1.3888557314552024 5.769343717056228 2.15676589595213 0.3926160011416607 -1.1847843555083364 -1.119935650599091 -1.7609902491091638 -3.414045265600659 -0.15321322468550425 1.4573835138880538 -2.3620505274884196 -3.3082809907441986 0.08560418698029508 0.49668351292143825 3.530031024262905 2.332545539125513 -0.7752042387845149 -0.3982898427871446 -0.5167822006372956 0.9452092554884367 1.196306929121488 1.8639090866614303 -1.5494715968147184 0.5839835988909284 -0.08841675518319415 -1.7527104839372332 2.055008948541778 2.120153093111249 2.419531698304352 0.3453977657350215 -1.1592291383639965 -1.1019423106572346 1.9239517946583031 -1.4969626227078032 -1.1609781142748843 1.6148086434817268 -1.8278948560715174 1.1646940711871265 -0.7353718359900864 0.10011503440867602 -1.9122048538391552 2.135225222013327 -0.8141465246322229 0.8224822168923687 -0.6501117732569489 -0.7351332498226388 -1.7406862286955467 1.7147360215330745 2.382350542662919 0.22667567300436875 0.36420871788436593 0.04819290117765499 0.3832105556484364 -1.2199382194891 -0.0624386884182511 0.4049725340868514 -1.3964586799662684 -0.8266926995101654 0.1885424815426625 1.5203406012094316 0.33645948859981806 -1.6003381836852681 -1.6910599667972237 -0.30035021295415965 
0.32613266955251075 -0.7813607896997735 -2.1189100305435344 -2.0113893660505098 -0.15373612733196496 -0.11808350633527767 0.9492613518678297 1.244121367182746 -2.1328278951716984 -2.353778287121065 -1.9059381257982904 -1.0835286486985292 -1.927111201566821 0.4104981921056628 -0.10408090975034386 -1.0058242884494875 -0.5062426742223164 -0.7752553075292413 -1.5967742838747845 4.241250741572734 -0.570086829241547 -3.6792864476947384 -1.7800913451413334 -0.19633805684253178 1.225381593611773 -1.36963795697997 -0.6359688096139807 2.1124630385932073 1.0997026282712477 -1.1351544079102747 -2.4766161355231726 -1.7133448909719198 0.5299199811078411 -0.9650363598592442 -0.46483984202676065 1.4543440893227597 0.5314315194239533 0.9602629311903174 -0.3679547381928885 1.9810228402646537 -1.7420612064169805 1.3876402237985652 -0.008200763792740604 -2.2821613621295636 -1.6840876964630809 0.6679922433630713 -0.593481026808596 1.4699632540843566 0.8905186830100436 0.5287702843762803 -0.09238871829917084 0.8328877983513802 0.2938890581251982 -1.5274784167362172 0.40253510869101183 1.4980189328067357 -1.5193960097466446 -2.356194936026823 -1.3086974630638257 -0.01567484236300779 1.7732589320648608 0.46386340261045733 0.09992449977634738 2.2559320259022617 -0.06790679462405513 0.02823917821992204 -0.6021615348853702 0.3309156721746532 -2.089277008962509 -2.8433641039829713 -1.410142653636868 -2.4022150343177073 -0.024309841803374546 2.279343584533793 1.2969903225413681 0.5580021615449305 -0.3290148509666695 0.3127051821135629 -0.8145523370327631 -0.6235009730173031 -0.2794517394544236 0.09375503577483835 1.5914839707240402 -1.4890348171910055 -6.117379862342398 -5.686503257792397 -2.841879848534723 1.1090021830418608 1.9916569777914641 -0.502075479304728 0.6455597122243588 -0.9294731628354911 -2.2101317748322 0.722272691190633 -2.4084522284091654 0.6838891921338321 0.251021971328831 0.9354872773528711 1.0516285648123471 -1.4009745790859796 -1.6856714672911586 1.3163459523653804 -0.6768936801082606 1.6221778480139302 -0.03139527315349759 -0.011105735384218593 -1.0498161938917374 0.01892273864731582 -1.065403363897771 1.6882591360985961 2.252098066821976 0.4701614782834192 -3.9215298020828167 0.44484525441574163 0.44470759495576556 2.5446164385979984 0.774635049200157 -0.9351174164987378 0.4842716411230033 -1.3870320877548088 1.0317936914467176 -0.8913925876879473 1.5445964343243463 1.3162297928910554 1.850621339806776 -3.8643811770496996 -0.5183477555074555 0.38797071679119993 2.9289168159417076 -0.08664674534229776 0.24532924006361587 -0.417959339711993 -1.135281896166968 0.4346279207822502 -1.1983341058069734 2.788491069586201 0.4726377667260632 -1.4412464423115012 -6.770479601354842 0.2141328903411938 0.5191368114372745 0.311222370636129 1.0785892499266656 -0.5853364612879093 0.19090302682731733 0.2473637546288759 0.047494022381671615 0.7857409587384633 3.342299772733072 3.0767360328797158 -0.8063768239005201 -7.81903645760672 0.08561016134319363 1.244749224779302 2.4605308401423542 0.04970411817049401 -0.27503889949836574 -1.3078259671968915 0.6444103962720225 -0.7516241608624766 -1.3386218014489648 1.0772010881245468 0.1684731765549962 -1.6906239304366155 -3.33681095869971 0.18249484081857592 -0.7126860178627646 0.32731583740672876 0.3002145579551364 
0.21005824029618653 -1.297829735363409 -1.5709245726430847 0.0654138597859321 -0.006105744762573324 -1.2600957827507804 -2.180326115416645 -0.6768068623250443 0.47606785158341947 1.6757302385912318 2.077749858964333 0.06566532074711375 -0.15759478423967777 -0.25008062055285424 0.5304243674519122 1.9279314866268595 0.45458532184902123 1.113042304335891 -1.378735475419637 -2.6201447554322055 0.8533937703291409 2.682244424727965 2.726859577144244 4.336907964241553 -3.49124643539548 -0.3732466384463796 -0.354258569661404 -1.2182742469227261 2.6915083704573677 -0.4889855335488487 -1.9890529345527042 0.13767372786096638 -1.0355441127006368 -1.1355027840316927 -0.2564894742058945 2.5563048483504858 2.535121261622934 0.4566735419500604 -0.5308101378904032 -1.2254402131576592 -1.4797274715288262 1.3296567085724516 -1.5027635699153876 -0.25328738413675866 -1.9788076541003963 1.690280500833047 0.3234731083596515 -0.4150280228788143 0.994803605504165 7.180548764860198 0.3703239792206436 -1.3902990872141339 -1.299102658861869 1.0852861174038524 1.2317362438194415 1.9537339435249252 0.43361822467194966 -1.2489626751934253 -0.7436946164055892 0.6807682426777986 -1.4008252629043396 3.966256822221372 5.852759534957287 0.230748528829542 -0.7138784134951024 -0.03933287781800734 -1.616471694219964 0.07462941329776158 0.11704546382442797 -0.6670970913952574 -3.0749961268326444 -0.22918885116978274 -3.573863733335993 -2.6691980187341904 0.8139091759594419 5.409745552117418 0.9453960401749804 -0.05593710501493204 -1.530819124121508 -1.1768922097196768 -1.8275961108600087 0.7916444280026086 -2.66717064904519 -0.28991863447122823 -2.174038176691036 -0.634515721738785 -2.204057149891563 4.271057474105035 4.46235427114595 1.878104952303927 -1.7153470178411796 -1.0202375100301275 -0.6377557755482719 -2.407263569176228 0.7525862415263277 -2.607384582861332 -0.6987414249402207 -2.6213149393570925 -2.15908079260835 -1.2142572527610211 3.9873964920818508 2.2677962930020943 0.6885548702682238 0.5861621718183105 -2.866267921279981 0.7366119912048157 -1.149630656071385 0.514280061606793 0.11388244393416322 -0.8002547578792989 -3.457716021902706 -3.8648237277429947 -1.0041082200479454 2.384784161427204 2.766458571789334 0.24658224418448937 -1.2379266549972472 -2.0874609639140003 -0.6562178178804461 0.5125073946353544 1.18195148807397 0.7277089012080805 -0.544885984404115 -1.6198349213842202 -1.8641881523845094 -1.2984645197865465 5.749776295293164 1.7239225437590222 1.975142927572179 1.943655929315999 -2.802954188019541 0.8790262625988555 -0.3464706101663094 -0.2003091956372548 0.256936795997868 1.5273080093194877 -0.38611975721104164 -4.223703977305354 -0.5666566611250452 2.6185833423838742 2.3586323128859594 0.49750823942152855 1.1777993301977459 0.485757797034439 -1.8096032307927679 -1.1151542167690678 1.1707054170113171 2.245116388808606 -3.1583218226943783 -3.415933260174569 -1.4300412397756035 1.5399304468775215 2.9110770437378632 1.1116786399276761 0.015103431795874225 -1.1810622169116691 -0.20560694708972602 0.41945018103492276 -1.44615374187176 -0.8309991795363258 1.0726403207381578 -2.171089113335403 -1.0010855962554612 -1.1006129390848247 1.0759354357519113 1.5377471744258289 0.20173575663614243 -1.9349751886617756 -1.2458934558907622 
-5.454788191878855E-4 -0.24397374769457683 0.207261364334326 -0.6866537806392821 1.112273287783517 -1.156418889301639 -1.622318116965922 0.45174184088462377 1.13685787928171 -0.13990901250075044 -1.2935625436323188 -0.9583999977148461 1.0488079247377624 -0.04285523026759402 -1.3254896126607647 -1.2574970639774292 -1.5289114259324537 1.0570373532197788 -1.2850476259163368 1.9889798913322594 0.6090125502544401 1.6150085715100584 -1.902673779352417 -1.3943906448718442 0.09252945263262377 -0.6593911476590604 0.03798884287046374 -0.24705411215666184 -2.1883761077835326 0.0762553647412003 -1.52346609707988 -1.7782143449635026 0.46240368731666853 1.5033761714115546 1.7603864800686635 1.4685825188893602 -1.7813446220199383 -0.7425531972775528 -2.8156721073440902 0.20904403508531588 -1.5588044320494654 1.6005530462150621 0.764741754475072 -0.5137576333616577 -2.2700052483142152 -0.06435204209928055 2.2204499594694838 1.1823097624518644 -2.756172826800106 -1.0025270224099898 -2.0043548955989055 2.3224719295886858 -1.835630430477169 0.23812926960657307 -1.2446555600292948 -0.7267688510319738 0.033518222020026085 -2.5292249461340126 -0.21658541507496507 2.254700111216897 0.7589842551666074 -1.8350018305875302 -1.92881471359472 -0.8128144579245145 -0.866653442671498 -1.9166058189276818 0.7204535442710087 0.9684283129982221 1.97843030030082 -0.9223409260090532 -1.1216453466286294 1.114663037762834 1.2671639890539335 1.0177284367931425 -0.6262006455539604 -2.361392404705487 -0.5757070904938895 -0.2982617264390297 1.1205692390185749 0.605245548688712 0.9863671952873663 -1.5387846196810417 1.2866900369438552 -4.344935013009913 -0.039028235402103026 3.0486896978040967 0.46577109037586745 -2.9937233754831207 -0.5539750591595293 -1.4705205705723736 0.18086105779357536 -0.2102427911068164 -1.3928848854228677 -1.7132562562685638 1.6390283034841684 0.08707045442626676 0.9483383631054367 0.04980587220441159 4.46286626397356 0.3920287033213252 -4.687263515940197 0.855796037656867 0.620771362662759 -0.8902650735902123 -1.7013384025007086 -1.1765254513844194 -0.8694239954016054 2.7966596669266535 -1.50180933827433 -1.0393549967969151 -4.32803726352223 4.017151064541649 1.777128302969375 -5.27553477442465 0.40165119702754093 -1.3064141227428887 -1.4384573247115686 0.08428070151755543 0.7576093572855576 0.6639572845007473 1.253952139168734 1.0753378882021165 -5.7913997594876605 -2.7102113175546116 2.0767818732417966 1.961776025271798 -1.4055022243846509 -1.1183545575733562 0.13774096778693368 -0.97626464203466 -0.7582004336447745 1.0855645247351762 2.5652880478289717 0.6988183690000676 -2.2101606572620938 -1.9323310196817711 -1.059335124074771 4.932183575052295 -0.025291997790148756 -3.806856727216838 -1.1729868600025515 0.5091346079793606 1.1159306207892588 -1.5075631236410598 2.2946919673228354 0.10468941668461079 0.6194042119897938 -2.2901485442473053 -3.8944665078283984 0.3030370346704743 4.285063254966783 -1.2422596530429306 -0.3768180819560804 2.2016571396702793 0.4485438526720934 -0.7958301204221206 1.8124197046146249 0.4399952791276022 -0.705862997186288 -0.8392185172948251 -3.798334427362476 -0.760177087075885 3.0917190950408346 2.1546549805969684 -0.06537626443999094 0.18996575539887994 -0.9860826698965748 -0.7918119146742993 -0.45648022677940914 
0.21304815094323915 -1.1094639930000283 -1.497100579404513 -0.4048186136943996 -1.6050711145751093 -1.7904375867587214 -1.7098600494615053 0.9408960346062828 2.2691254141800443 3.5547696040099197 -0.6155478538451212 -0.8215262227293846 -0.0982882433355029 -0.13981511573069302 -2.5619405204905332 1.985865108484652 -0.05651953377699978 -1.6357125982129015 -0.4521508958156898 -1.956383508883713 0.9240684458865571 3.722980840658409 3.3857242764214788 2.6999809405402604 1.9987603529698235 0.7226524616586109 -0.8123191320524842 -2.101945302363409 -1.6825460314382135 -1.0323463769670833 -0.7317939042473539 1.0295554469335646 0.009274192271566901 -1.1290190751551528 -0.011320741441264359 4.604544359363598 1.5314026832825602 0.3719527955241148 -0.4708072583788046 -0.6291549960054237 -0.017001684452538954 -0.6226389752485131 -1.8615665338142398 -2.866252462418615 0.4061517966627795 0.9936105398524091 -1.2147072808472263 0.8892102539575719 3.5423228297897444 3.062175288938596 3.419483796853591 0.1326267193320662 -0.9949879723778111 -0.6707634275887624 -1.0107686284788693 -1.158200868445523 0.37164484994081043 -0.8179525321889944 -1.7452423102660715 -0.9790800215131921 0.9673295125930633 1.5581173091757359 5.019735414608864 4.087494305241547 -1.7452547202856432 -0.7373816761696832 -1.3617659348759152 -0.5044421353314267 -0.4579252652188411 -2.9496101074817904 0.5353022912703059 -1.1100140161870449 -0.8250573401986511 -0.736843148290258 1.2912138677254985 2.1371263641340152 4.473258578037262 0.4711127100196948 0.8626461381956507 -1.463513839342155 -1.5953418234862422 -0.29352812917858334 -0.23331734074597524 -0.13145288331121566 -1.2880980381440745 -2.137652136161798 -0.8929912926105222 1.7220142570217392 2.4077967126439517 3.266436584224817 2.0204037076413055 -1.3127346242077842 -1.8988834001801551 0.5074254139135406 -0.724956560046081 -1.6935287094420262 -0.1900249963967862 -1.2988050765020975 -1.1569668595794236 -0.8756252042391451 4.109520302455641 3.9054620937321856 3.681449299684673 0.28738859668703276 -0.4936443333799613 -1.0790578069287198 -0.20899082488152773 -1.6031124809483634 -1.320109806803139 -1.0410565366022724 -4.030477618935319 -1.1661575877766284 0.09491012381921256 3.6371015432441345 4.344066276167542 0.13751535297176484 1.245742219180802 -1.5535614535420694 -0.52500392310295 0.058955351909156906 1.5848091586025015 -2.4625502091122304 -0.8667708755233012 -2.2369010284897435 -2.381136217248117 2.102754549786096 5.71730432214814 4.25123492280814 -0.2367536051154976 2.1480245763301684 -2.2486943975557248 -0.810183458344863 -3.183146146924027 -0.34628528117304097 2.4620131322665118 -0.08544783241436307 3.8693383499486083 -0.23526623186179366 1.8914784709865013 1.93909493621614 2.465229411450964 1.0818513566687766 2.0941004609682397 -1.4145044839138428 0.17756219824348732 1.060441457340425 -2.189761372023384 0.4885330780582242 2.959917535422816 1.486990482685154 0.6214414094589475 4.332164052306694 2.993326902532629 3.958789144200279 0.23018243822531806 0.10457147275619784 -0.24995954109112034 -1.7080938370792664 -2.026456249738757 -0.12501009280720352 -0.47745871148477165 -1.9792114969226413 2.1420790834712244 3.3840104595530063 2.573454812108435 1.7905746956356672 1.7795564751458248 0.8597192716892113 0.6137990676944158 
-0.003275082040513414 -0.32315625363708195 -0.4138994256704578 0.7145585236559829 0.53279435839504 -0.5606553835524382 -0.02830354700035312 -0.274249288891232 -0.5287811750222693 -2.6409815664863068 -2.0981904735084633 -0.35093703882271843 1.1724690982412258 0.19231101546242185 -0.6324677002226369 1.3404015963307077 -0.770332128578228 -2.773873852563971 -0.012758937686110814 -1.86125781878824 1.8786634753381608 0.912781450941146 -0.6492035496355345 0.04744739891011875 -0.3967749385872435 0.3634698180127338 -0.607992213705705 -1.526408297263745 -0.4618039449182544 2.387566365825436 -0.6815804484470518 0.49935630416642574 -1.194577322710112 0.667775508587463 -0.15354277781214248 1.33025307616754 0.9398399150820975 1.5206193446717922 2.1845341828849745 1.5775429540444348 -1.281463659817123 2.8916747218908894 -0.29208712852659824 -1.5235935534350373 -0.5345910384011293 -0.4590760407704318 0.8052159033117677 -0.4069119087984649 -0.5885029535325894 2.4990548565622563 2.1893429387356633 -0.26426663229329983 -1.5228701543581238 0.5001894864748481 -1.6480520142519608 -3.4332926822188754 1.1467024664632983 0.9660816411193481 -1.0520880022067571 -0.33744736634688743 -1.6064369099483429 -0.1262413318881186 1.5437122725043038 2.4932481871558148 -1.0425870610094734 -0.35469211369448583 0.36325165181977925 -0.4166201083052467 -2.4266053330117616 0.6630834428166391 -1.1828240024158172 -3.9811407867400685 -5.66492615019584 -0.21145267269766738 2.553647278163458 2.49519107859302 -0.10193477296573848 -1.1889653622196947 -3.248070054019844 2.2795188629692307 0.058579798507216854 2.7021956618174965 0.909666785021308 -1.8401217471640505 1.3443087336114254 -2.5156697516639004 1.3401262438359902 1.9764546536049714 4.010151556506083 -0.15921776795835918 -0.4679246290445212 -0.601245726502776 -2.221650135327947 -2.6629949747283836 1.4804110747973938 0.9126914169018273 -1.5869360833920227 0.002331304256175057 0.07081049904466055 -0.7763415218309422 -1.0282600023927633 1.18944646451807 2.5238548717022184 1.68270013230186 2.2945331051684366 -1.9837079262653752 -2.013728944063 -0.33086056826032656 0.9527098647256924 -1.5953370693630646 -2.100243886275114 -3.8915296755718565 -2.7245774249548935 0.8547298371052818 2.8412664945248522 1.8606215749662547 1.6659735944373477 0.17009789709678025 0.6063873116022988 0.548214972128554 0.49505332301923943 -1.862736908775374 -3.9258461927884554 -2.582043802185079 -0.8456311438071717 -0.04574778690312866 -2.3489659926332553 -0.6608984177992758 0.854347866445454 0.27024958421452294 -1.4768616075745702 -0.993968262267739 -0.8981488894943074 -2.013922359548762 -0.9898748589309714 -7.24840124599101 -2.5401713340669647 -0.14440213896778725 -1.6471220086341707 0.9249161405390438 0.6800146143862668 -0.24787529638303538 1.9453194032928007 -0.8869336083447606 0.8387979474090307 -1.7247975915345302 -2.44591275052753 -0.8586806035429393 -3.160567085159084 -2.063702120113137 0.523516964674019 -3.326605243408965 1.3745493029601181 -0.18287247250109656 1.5107480520998084 0.07649138872371233 0.29766336267014076 1.0842022020684898 -1.6469962223550856 -0.7968480267922224 -0.5338330261729206 -1.1770059341640444 -1.4074318302242081 -2.5131511344358826 -2.423107427874878 -1.0827088392878375 -1.1705102687713924 1.5227840315971164 1.1794090386765868 
0.05447168012363213 0.24453790413500942 0.852543804557371 2.4531837067191606 0.022219144861040624 0.5139371921963843 0.9354658527367319 1.9667191513369147 0.35217436463710267 0.8332300056806142 -0.09669365804731417 2.5392026123503877 -0.5827008973567854 0.13590215028444386 -0.7651522256529604 1.3840298829195807 0.47616902100500413 2.824445762187442 2.391540468576463 -2.242141570078379 0.2512393174354146 -0.2580158800903921 -1.0039976087645908 -1.01588927804021 2.1539529925743652 -1.1015566517981168 1.2343973107817154 -0.01861966328456056 0.6709859392568472 1.9528556655643463 1.9252304479809468 0.7420729386216759 1.8039685808436197 3.3100098411933314 2.8262779765649975 -1.0852734397107502 2.385158071040673 0.7631365922655524 0.9924320725388882 -0.44378679845213487 -2.6713170793236536 -1.5108425881734755 1.1298041076467817 2.0798119267270945 -1.2290523403579448 2.0480153263082594 -0.13562687301694124 -0.963113764275481 -0.5722050078441349 -2.469838997022601 -3.6262739719892627 1.3858930232450022 0.17883233680504815 0.850967804022678 -1.6521864263056796 1.559143025104705 3.0350908003381027 -0.4667853343204092 0.2851502813122614 -1.8848031546953041 -1.2226327819651683 -1.3693566012290714 -0.3447524488972875 -1.0871881443420381 0.05736388613875086 2.537402774899191 -0.6008596445206984 -2.8072231891215607 1.1177930261180584 -2.0133965899889215 1.0658753520502378 3.922477627537765 0.8448976122191483 -1.7953714041017346 -0.285339491810882 -0.3243553434252959 0.8124973407671465 -0.15515625669887373 0.7915578522969454 2.2270697255175707 1.9611126128153653 0.6735280422376307 -1.046306175000024 -1.845050909618102 0.05966468251633564 -1.902044286019835 -0.10825095047254162 0.7313772037701963 1.3096157753733237 -2.3216843668416414 -1.3470984074193968 -0.2238249408757666 2.822464889749454 0.6234962273817614 2.012798032897591 -0.22436927292106715 -3.6740478609952905 -2.728501800644956 -2.4691222975455744 2.237926700466935 -1.9078015155384658 1.624912821437393 1.3277536199574915 1.4205734642706065 0.6298741248148975 5.424434937195143 1.821427772729761 2.6159789902007455 -0.646970362081574 -1.9822238928652467 -5.160845787289101 -2.765140660498024 -2.6825622686641473 -0.18242913317646628 -2.914051223417829 0.41235742409462595 -0.10828234125807176 2.4255312550979293 1.0076298479226673 2.727482954506334 -0.9335812032210119 -1.675846453832232 -2.9530799616484487 0.7638985816318972 -0.4126462856434123 -1.7729712310130457 -0.4575753306747308 0.32369784118440986 0.16836513139057457 1.543831875294852 1.2449040013638515 2.8723174871011716 1.1096744433476722 1.1636718943978626 0.9713494328055757 1.5306825566592352 1.889614392992685 0.740637519131262 1.596576758649854 1.1051579253972519 -2.2498688636718533 0.5051018224157838 -1.3686514403554995 -1.3272892157126348 -3.0889572549067634 2.4743687217831436 2.3331918846248874 2.7869581744107292 1.6868847434980958 -1.395791537852594 2.619120030472955 2.702909291980153 0.6881330021361108 0.4787680448377334 -2.298419909547518 -0.6990043681846432 -1.0506075853264183 -0.9803824061386375 1.6180527917959993 4.564257063970635 1.0862213855290075 4.200007026733708 2.7483290574874606 3.2622526199463535 0.6021138709803687 -0.9029825203577669 0.9126107269473729 0.8329815136981035 -0.1650118435244873 
0.26219414641730254 -0.6869998322036729 -0.8833645661846441 -0.6248111859452326 -0.9091896868192272 -3.826462518659176 -2.5548452404061637 1.150772327666441 5.600714356248788 -0.8507844573154718 -2.613429545791698 -2.192933853923451 0.5755420581062907 -0.6098511072374452 -1.1160217627105338 -0.7858376481981648 -1.6439331593987692 -3.991556720953318 -5.142110056001538 -4.600257510747595 4.6276915413395905 5.446529634654378 2.022892620336363 -2.446538178471381 -0.4962064370551229 -0.21419808565425852 -1.6255468788701006 -0.4159466788124661 -1.241602013749485 -1.9584896001664478 -4.239036823427203 -5.323743024747391 -2.080351862105009 -0.061824816910755774 1.8934361563736681 2.3288675684879054 -2.6247119538479544 -1.7787269325133712 -1.243708798292087 0.25795656919323906 1.4439657520840035 -1.1983272490000196 -2.1902139043653572 -3.9250465513902024 -5.594055533396179 -4.566822785225308 -0.4173805560698835 1.3257869709987986 -0.6126123428140028 -1.043163613109562 -2.262307189064511 -0.8130139722872975 -0.3652098533180033 0.07288225032218194 1.2246192224105052 -0.07944613566594041 -1.5107657615685686 -4.215045253392334 -4.072051708145435 -0.8029233495186324 -0.13164073213608457 2.323929146563193 -1.5333675503563784 -2.473547482236211 0.06944145158524657 1.7629590719667008 1.6867713579114267 2.3804867375428316 2.3627767041429797 0.7453806310126082 -1.4742554996209583 -4.919888091663475 -2.8694759755081876 -3.892130662212107 -0.988945804695223 0.41887599225547906 0.054871811660769834 -2.1752949753857425 0.9946890442271822 0.35848363739772277 0.35601833148661366 1.5864999886267732 2.050600579385327 0.4384540034373113 -0.5123221692651995 -1.8246674154290425 -2.4699348063284816 -0.5736350218661884 1.4969290402210842 0.532972340195027 1.1159794592880266 -0.7263513273973221 -0.2416683071995487 0.29582545528481424 0.8974662215736859 1.1691703352191896 1.3390353324010627 0.6480117962152164 -0.49141855798758727 0.24140922759007888 -1.043431899954009 -0.7411439121500514 -0.43162064468660966 0.3744160130668698 -0.15171668544699213 0.8543591206691206 1.1189156125051447 -0.14841624844194867 1.2568725373721783 -0.6690249718408662 0.4524023624696546 1.0173072271195955 1.7730293889000148 0.5115265472645238 -2.4312431986091547 0.406850434625927 -0.4068656852680273 -0.38917657001909284 1.8457651619090976 -1.7444035346778024 0.47901955397881385 -0.20836445172342305 0.7158890702440897 0.38774879073460583 0.44630178436108475 1.9963587599731623 1.0445979805671826 -0.14423963929759023 -1.3204038199041814 -1.4185734837262616 1.6762029413073412 0.5923180156314226 1.0717211920627232 2.834453212210004 -1.3781484619675433 -1.7757230952377459 -0.7702147665990015 0.22380799590535624 1.325073572198189 -0.6522313166283313 1.0412532949122393 -0.327633148466247 -1.3881665268214447 1.061775321013963 1.08716578498876 3.0567377681788215 0.9785234671554123 -2.399212207574891 -0.4021601845339422 1.653371533680746 1.1445692631573954 -1.5996031352913251 -0.1650579040245433 2.2720145218024412 -3.104414948772544 -0.496835794947943 0.9018324884805865 -0.30559544085398704 -0.39322464065246626 0.3834948293521755 0.5043792518191257 0.9911080271560861 0.7238795633851834 0.5945072564982388 0.22852061634909668 -0.36212248559211296 -0.6906183070975069 -1.4802995265990493 -1.2480464392933817 
-0.03496921367636643 -0.9134971427415893 -2.066935974898243 -1.8184917652134223 1.4998520600512169 1.5119811853827951 -1.49978103516981 -1.9790476025415458 -4.130949142030959 -3.165380666143469 -2.736030279507842 -1.6604181822409698 -1.3360299968473495 1.2771084896670684 -0.8922829807349036 0.40726002307096043 1.0316703810301153 -1.4490319704219956 0.22983963250185294 1.2417588348915363 1.0923218278866467 -2.4026737906575137 -2.8355514814306284 -2.4808949879966793 -2.938513359466156 1.2891367207349704 0.47744079814324936 -0.7000439915827369 3.2308598171054164 -2.3822507960436954 1.3797813759400857 -0.7728664150219005 -0.21824006387512562 -0.47339922760331127 -0.754097868969237 -1.0874799223213463 -3.801007236363691 -1.9369669945565493 0.7146874132859727 0.694835363565402 1.5721929383286504 -0.670251247777999 1.4765592428877712 1.3698621040453496 0.4397229978001101 -3.0503442779556287 -0.8789767539311637 -4.035253274815186 -1.8643995860701048 -0.2967240345114455 1.563565578572968 0.19415198639260076 1.0169062662175055 0.06114856094552852 1.6387536247605496 0.8733737778165868 2.7020472677420306 1.1865607023064109 -1.0879330027980918 -1.1425978328335165 -1.2915795392712959 -1.9601213311672334 -2.949923519462445 0.9221237131477461 -1.292332818588177 -0.48625910349710555 2.3909284525875654 -0.14414516565157307 3.339131641961908 2.6285663036151914 0.2847536236458627 -0.5870641126582459 -1.2355814187581708 -1.5678218637430026 -2.165394543950118 -2.4326676609074456 -2.0098313283039033 0.6843438272183143 1.3876456578590337 1.3798456360947557 3.618610043088844 2.982430644848443 1.0396392103502217 -0.25686301450888444 -0.22191397273781682 -3.612505239365828 0.03479135558174486 -3.0848304863232734 -1.0735884504260755 -0.8733392691187389 -0.6646084770405 0.3461703681179779 1.6043388348826828 2.096761977164253 1.6862762475830784 3.8319905173000257 1.1888282424117411 -4.577410866244895 -3.796722481663618 -3.589515644785999 -1.832520251806299 -2.6652179946393626 -2.474458492915792 -2.1137892255349042 1.8272108443855708 1.2762629169091302 -1.2356887725298424 3.1048632086654187 6.102987897472287 0.14137924291819018 -1.7019045880020027 -3.500915357050658 -0.6754421399190659 -0.04830379955020283 0.8264752243994703 -4.309789739950955 -2.141203807733105 -2.6792821155285043 -0.9821699595863546 2.6795593259954336 1.4421046627918273 2.589107450399861 1.4529264269508921 3.5135009818859997 -2.0665013297136126 -2.3351724063780015 -0.8500394441856978 -2.3695007329099758 -0.436283160144197 -3.409459418756231 -1.0184184059340735 0.7344871868249919 -0.4103803577729791 0.3814702223602914 1.2787736271859882 3.7959765899174687 2.0376564331413243 1.8051281173401417 -0.957348209440866 -3.4816266223560537 -3.136085613314823 -3.3426389273175885 -3.007613567619564 -0.25496292758157735 0.09024500391458991 -0.10302103884600466 0.5531533126138272 0.8071040551601785 3.4178558930838046 3.3421129195169934 3.297900334758987 1.6052630536648942 -1.5528135294222425 -2.529422547224352 -1.5774686359502303 -2.779564908451292 -0.8879765609169882 -1.162298960032989 0.06406108114803263 -0.36131861145618255 0.6249082073653445 3.1623706675954266 0.9229834902577413 1.5751314511475658 1.1066014040963736 1.3095099155379686 -0.9516029840795976 -1.1836023412740384 -0.590686418976047 
0.11122708482911385 -0.03839751188489613 -1.5016290217443082 -1.4843664585056051 -1.5606290517549193 -1.482438904174797 -1.0366276362165838 -1.023449374536339 0.1406053380745884 -1.765603023976408 -2.3268956863746184 -0.6847705466831058 -1.3453626472358478 0.27398839184463647 0.7359998896704842 -0.5942664470074148 -3.2854758401630098 -6.182065721380134 -2.1562451217367764 -1.570844833132167 -1.8697030445694494 0.8061924595317795 -2.0069601089235953 0.6094272174053933 0.9079247833964387 -2.045730621515567 -0.26927147469845175 -0.6523203334982847 -2.1593426513245473 -2.190708644247704 -0.7602975903228198 -0.9421896093565846 -0.8676963069755327 0.9209916152514942 -0.4109730598079936 0.8557514662046305 0.35594412110173235 0.7714423307854639 0.3192524469236934 -0.7711766624833531 -2.8680048507564693 -2.8639845822093863 -4.144855405069734 0.9055592579775393 -0.09507072067912087 0.28529719960547595 1.8596841916398847 -1.6175975236923081 0.7901925315312537 -0.9671529151991288 -1.8393490595443376 -1.6702620931912386 -0.7051274211187905 2.166396459741872 2.9977003832153946 -1.3334655828929967 1.3690298309098152 1.26022497322461 -0.11038288420648693 2.2363133407139952 1.3094315243872028 0.33950160852613354 -2.6025940927787508 -0.8939351165345537 -1.6271937447184117 -0.029038775966688808 0.326944985509781 1.8052197378659787 1.7431962016532874 2.8660583792482743 1.7063246227483717 0.3019352061706658 -0.4210890785984735 -0.8487339348931602 -0.14513459425218372 -1.3499083324794867 -0.2993473620695701 -1.4190162209262247 0.11845910328555137 3.0572543133277583 4.93718010382388 0.2465230140727846 2.3853801648670308 -0.9788926307110926 -1.900653189778036 -2.217765636154322 -0.252730981834974 0.3400159320723981 -0.6959592433314671 -1.0942685916622872 -0.5852779855934589 -0.2061087831049179 -1.905906764599632 -1.341080948093289 -3.6992719772721663 -3.206242127177714 -1.6468888491137452 -2.5348287020160813 -1.848256442484307 0.46033523426264294 0.3367556441273667 0.6268015957414577 0.18372459984666265 0.8718690822383045 -2.7280889382389284 -8.523919860045753 -6.441417730224486 -5.688609933093257 -1.0447168964879636 -0.16125639085162083 0.010921018509158855 -0.9428127376990167 -1.2362912928844583 -0.17143742060844347 0.7706741584898394 -0.5279137656428399 0.028850841533063554 -3.38145515620253 -2.2351811668964103 0.20170968150448698 0.632267966045787 4.857318757083081 -1.4797424492529405 -0.14817381870662832 -1.3952590862899363 -1.7204456472581569 0.4785612866210146 -0.6479192005445044 1.9178774514905794 -0.4605756023037236 -1.0170560950069796 -1.6731960465386597 2.727451229959353 1.6021776457577723 1.2462833541202265 0.09275356035282463 1.3756927696375842 -1.7218891018495859 -2.542261132100063 1.1439205715662812 -0.5961616483298787 -0.1593022857858681 -1.4385576134382476 -1.1122024172238063 1.0133964612506057 2.2992151925341573 -0.6803595905938666 2.254605988453032 1.6503313672357878 0.316479305363698 -2.087091559174865 -0.7279797809142692 1.7011732422098897 -1.5704408170702506 2.18649676884405 -0.008265075215205066 -0.7266728512186006 0.9566300693591911 -0.13795492331851006 -0.5187079166786089 -0.1601943042855074 2.9656593390630586 -1.8364907674799538 -0.6957648114917061 -0.827952060794175 -0.41613389605475115 -0.6346025007806834 -0.20078969959422577 0.1683446511511645 
0.14000276375910295 -0.10146591330550157 -0.3401055283126266 -0.5546878918968189 -1.6766712210450685 -0.443849229499584 -2.144962148201696 1.0858259944266637 -2.0940998387865055 -2.9737849564645042 -1.529840344817973 0.4261596781859319 1.3110434974831566 0.4256194237594036 -0.36572732880522224 -0.19150954163236827 0.42713490829266376 -2.044225171882784 -0.7421144166075917 0.8704701473727795 0.3326812599225192 -2.069369266989195 -4.6099532459933545 -3.755204659774721 -0.3967979422963166 0.5170001925899786 0.8043256990332486 0.1435118214095461 -1.7249801409535832 -0.35953726659880564 -2.5493535288791036 0.5399783629091816 0.46802040993153443 1.927806651737651 -2.2257764778757223 -5.41245396305373 -1.8388201147795242 0.9624262537369483 -0.9111303343605254 -1.2642544531092104 0.31677830814737334 0.7976214346811727 2.2266192898663837 -2.2024230729171412 -3.588683617208805 0.44420803528554964 3.549308315746481 -3.886432223213661 -2.4270582263076674 -0.525652802060501 -0.21139658705386982 2.5078141728073184 0.006895258272643146 -0.042021988583825685 0.45728718277211533 0.805454132966536 -0.8027854672229309 -0.827636194422695 -1.982643257013065 2.0303419861140917 -1.761424178282614 1.2396607012277938 1.3935763381543147 0.59320840002286 1.9476725316894306 0.187263646659878 0.12929715948541332 1.5413463291992342 -1.5402335127216602 -1.7573105239423072 -0.9327854860476961 0.3132449928235713 -0.5450650411466786 2.9271668096587975 2.3305198295072773 1.084342969730101 1.477161243883307 -0.322748810671854 -0.025633183102091218 -0.8086067253766749 0.9241645701321098 -3.826931520373168 0.5625112125141729 0.7937848471484815 -2.2035050915211154 1.9001717842053325 -0.6780344358141074 1.2555819832225892 -1.2976206451956163 1.0921294169724096 -0.6215810391748855 -1.4044593913472772 -1.488306830053232 0.8398429735768705 -0.1825777133018268 -1.3916868279379593 -3.224424694070159 0.0048186501550006 -0.3194977318639719 -0.16711647655306217 -0.08721313281157346 -0.5562842708691402 0.6560200434591006 -0.8872463429254742 1.519467359071497 -0.5936574178030597 0.26324892034942293 -1.3288373206665414 -1.2493412461256013 -1.0412022205762723 -2.3285612505991984 0.7892574181085902 1.7179732755955228 0.2424371501566605 0.6523423045155031 -0.7819496549910407 -0.7257748109669322 1.3552152554514167 1.8652813850824153 2.141198574271411 -0.994803409139291 -1.3976334921522529 -1.6584486869289181 -1.9932751026677094 2.2775931202396866 3.9048188071459204 0.37564423771859745 -0.2614464896824937 -1.0283493061207534 -0.21900725166595567 -1.5242238911618375 1.117949814558586 2.03144095495309 -2.2782712788584214 -3.4679361471343446 -0.6893082619921043 1.158486235391388 2.93336372762968 -1.655484749552924 -1.3750730276583698 0.6122606557510818 0.40047085877146593 -0.4136285691341274 1.5459916948507932 1.4072513472648769 -2.361959686390291 -1.3390493280473592 -0.7191433522945361 -1.71217389911745 2.0158262332368837 1.9354463933236141 -0.49190327153343616 1.1736338346822097 0.07840068514703928 -0.12475075298595485 0.533932704331319 0.34998601924048905 -0.5742002596305713 -2.8199323025002987 -2.4477669250475276 -0.6355681297014462 -0.20743027134859818 1.1482802072771523 -1.6319896519049497 -0.4267976963358149 0.3013343886850841 1.2652446608904555 1.0968162031280988 -0.03623975275766506 
0.05667011708658551 -0.2951703954405025 -0.3364766409643792 0.9849249990343599 2.386989065032119 0.1110594152386558 -0.48324748084542024 -1.810857460006734 0.5170390277169755 3.570996094368772 3.2033786197028324 -1.3242064118831978 -0.6238906601126921 0.5670731324416177 0.41144531339183305 0.015900653376735286 2.23041808168209 0.9997437859808292 -0.586101678935911 0.09992437895149424 -4.258730203737687 -1.1366859726016583 -3.5909715751512437 1.7696067416730068 0.9553551080758748 0.12132411607245994 0.48737606121499316 0.7929710595303687 0.9384346798416708 -0.3718056287011477 -2.1505255190283985 -3.334925424234429 -0.6694316715628942 0.3372252015993963 -1.13384186607319 -0.6253641296987835 1.1501982878488959 0.5064582206940009 -0.09215299103856021 0.5378082706084649 0.4066102274150676 1.1457754400461835 -0.7780169192786088 -0.37526749219870004 -1.5360620426181548 -2.44223468830977 -0.4209120747456213 -0.27370597290478893 -0.8217815185130934 0.08631389058066888 0.6635225104544236 -0.8011732770220711 -1.3135245751351234 -1.6096800072667818 0.3801193500191474 1.860877117061725 -0.41354391624753906 -0.05620450156969516 -2.1622777951709002 -3.2752966422710754 0.051266202664870406 -0.2777756007137331 -0.3702178941969801 -0.6973367846301441 -0.10865605325573455 -1.5579054611353753 -0.7287325848632049 -0.6756053196582826 1.2548064735379123 -0.21771041391302298 -1.668223730813389 -0.8120666873128729 -1.3889004311234654 1.52436402164148 1.5747869220139663 0.41321549168952243 -2.400064030867376 -2.300871158844812 -1.1398944457136764 -0.38050829578518086 0.7202864937343152 -2.1740261379066834 -0.8556647328101306 0.9435364437393399 -2.1128657395152377 0.3487284859865877 2.246579041213525 0.029522153506702942 -1.0690130294495448 -0.9837339525496098 -1.6437869165121306 0.5715440361769848 -0.8779358739906844 -0.4379386666802577 -1.2985984732013773 1.9013260083190553 0.1045850834618284 1.2904589536205986 0.7517375476947219 -4.620753769099091 -4.571964341157109 -1.5756567180082468 0.1062548800155787 -1.354183434167808 0.16804121688977275 -0.8969687956172107 -0.0024213099696841103 -2.1767725013989865 2.3216940263375734 3.3114424233324584 0.881398393131522 -1.5057780971176595 -2.718882074881974 -2.762734466498129 1.2036735558947955 -0.2688100741455813 0.19318105862176418 0.6488041303296209 -0.24239477703342263 -0.7600849869697993 3.031450569058811 0.39452342554574016 2.085833079040033 4.191448015134692 4.355795819495424 -1.1999720985858813 -0.7415802066302872 0.13837072682603416 -0.07768380233743617 1.3822359421891564 0.6465169797829139 0.489905112289179 -1.9509291673602163 -0.47436228176049694 -2.9271706726297246 0.1675242828778381 0.4729039552663341 4.28851516404027 4.155407692570738 2.0715535462168746 2.400072838096548 -0.6199462569275273 1.0646024733801636 -2.212887283377945 -0.15813623762438975 -0.6464373543328242 0.5198489821354177 -1.3899614982726503 1.0753428669216651 1.9092288457430755 4.838463066955447 2.5815608468635705 2.37407123331538 0.8263633676946093 1.3796407183653243 0.9524970690675921 0.12508496171812675 -0.11780462870913164 0.19626896493316345 -0.6083457629031028 -0.7159185629265158 -1.262642037842572 0.8518861950606329 0.5775089507853896 2.7651530597452445 2.5844725125737167 0.9773834994295434 1.4076410902543584 0.5575897111242787 
0.15100121915806655 -0.7607123924593382 -1.028230096787654 -1.1640746971307536 0.8907276760463912 -0.7350553918375097 2.775366642854439 1.073792187771273 0.5941360403064744 2.137171157683373 0.2905344877074211 0.8661283724095344 1.5683898564621652 0.3808187499028375 -0.134041026778339 -3.4829031086136895 -2.784039805166535 -2.301612030882768 -0.15288606777680563 1.8061747984889212 1.7735386626685263 1.7513371861919929 1.8008092795412636 -0.3771085755898027 1.045760534136976 -0.0809245833633052 -1.0291113259514022 -2.5621468779534062 -1.340087684570196 -1.115469762226301 -2.6423987551241224 -3.712892227696038 0.1454740967793341 1.0914729295374284 1.2422288582798295 -0.49559680515371435 -1.603947756508294 1.3326979227966644 -1.7890867962442012 -0.734582985364224 -1.3085652128899323 -0.9914537009055924 -3.8078484341552024 -0.08703890467013954 -3.7848478302296864 -0.08114462757930899 0.704556636425101 2.2327404612586514 2.093396543957721 -0.8613700360400653 0.2477196461444358 0.7333865310751149 -0.6031543860624711 0.09609218155806558 -1.2489736092952393 -1.6438972972970287 0.5105923008769442 -2.9342267789601624 -2.6747819793157688 0.3468338567092992 2.723261824670677 1.310089916482892 0.17908557492844623 1.34809437298308E-4 0.34370609293575444 1.1479761800838797 -2.476164666239115 -2.434838424043634 -1.8335522828985298 -3.3913468939054825 -6.594248303938726 -5.376958901842212 3.7474235504552746 3.805408507643588 2.358898942769755 1.6646780211258074 -0.30868347675849683 -0.29783020798032633 1.060437602649538 -1.0022529850604849 -2.707174130007696 -1.4911213470338691 -1.7229914750952984 -4.4283577196283055 -4.989007508650913 3.896709557448352 3.744543004598553 0.19681595926450665 0.7587025693203913 1.5912628920860332 3.6972739944689605 0.8798889855052684 -0.7466479647382526 0.33811918171593563 -2.604592349104577 -2.3787541583365956 -5.448462535586812 -0.23906012249247274 4.668338043058022 3.5671362269189544 2.192224060435908 2.3207878675535274 1.6057534254856258 0.5591129471486199 -0.555292123507453 -2.282459606207654 -0.739719157156402 -2.6781773325128477 -2.7451843596828245 -4.705356053297251 2.5706683215231103 2.0134974425501033 3.843496023833225 3.29912806885015 1.1065562125698436 2.655765193719915 1.4591667272435132 0.6352402005964984 0.15272614036232565 -0.5133329540204515 0.9695984327948047 -2.3446779912758977 0.8744129154826327 1.2883276261061092 1.4118221537978846 -2.620647791328366 2.053029354529282 0.9169076408127499 1.471218805475797 3.5424838258802334 -0.6704354049803365 0.4170808086380937 -1.7503860419048491 -1.4279171013740921 -1.6994527623778282 -1.1560935668757246 2.427681566524045 3.206295837956337 0.3326516619356037 2.272168063580486 0.10101827741810979 1.4164349305712614 2.1745090891988847 1.7408669435112787 0.7774653752461047 0.26967145881027604 0.5276523004295232 -1.5466418831466253 -2.6576072194769913 -0.27248091118103634 0.20304917940286216 0.8286374195989031 1.27077523009923 1.401317690882255 3.7852301143660014 2.08613762161342 -0.35518087056850894 0.2911296422378219 0.07428884551164507 -0.9676498223845056 -3.2829531524769 -1.3478470431301617 1.5399234375784718 0.9943961924639716 -0.6324368484971611 -0.13826750538791754 0.5665202599042456 0.6951829514158262 0.5120563531239689 
0.28644724160577917 0.4474237401235226 0.5075473275473829 0.28361560459677493 -0.8463746232239 -1.8948554520827259 -1.5172580880984736 -1.064524358134104 -1.5636290428373887 -0.04865965588929854 -0.5080584907974061 0.9831761385436585 1.2712557373862112 -0.9118563023706204 -0.7366276108567007 -1.7361654322568434 -0.30572308592801944 -0.6508716689733892 -1.1447412284625524 -2.9432624011054385 -5.456430050327102 0.226781248380341 0.8407158322300013 -1.6851259363883386 0.48878448427382176 0.4565889206318019 0.2541134282466375 -0.599003801007835 -2.0649252794408635 0.7663895709856737 -0.5127319547896445 -2.8869906675751924 -1.675480612682113 -3.8401961558197706 -0.7961002243059415 -0.3518216444011662 0.4712703873337264 -0.14248743465848826 2.188385667093504 1.0724622230116538 -2.2242003991405697 1.1098044576130353 -2.4540991250391904 -1.4169804401119284 -0.06232575854218767 -1.3286993783815724 -1.9475971622966848 0.4656588367376646 0.9198039149965986 -0.320083918293669 1.0549388194744465 0.8101899998498321 2.697238492680497 1.5011236409121422 0.27617879400808265 0.3603609091833773 -1.3544625484553816 -1.5627550101280363 -2.7833125009702484 -2.966022635466659 0.3322126729509434 1.02645925051333 -0.7842434071831148 3.378694397021032 0.7163901463733952 2.5358551349903253 2.53688781177667 1.681810857797509 3.3305244530149447 1.3287448752506938 -2.4500767035597057 -2.6649074771522736 -1.1374152117967267 0.4337532586231424 0.7557781898475782 1.3715716974614194 1.3267037518497216 0.5594934339000858 0.9983764668239056 0.4043402328364476 -0.8810070452434813 2.6202914316878645 1.734799598415021 0.5302952288573701 -2.7209918749341537 -4.87220059649377 -3.5136498407785894 2.4226873655926955 -0.8959530774772662 0.7655385006825127 -2.367426440623422 -0.02624519203413257 -1.4556990975843807 -1.0726565321200274 0.4357693226504307 2.411781924718549 2.390327685203545 -1.8588730120651538 -4.590432684371835 -2.4494275640995022 -0.34896574128998653 0.8587295719710827 1.4534966404544187 0.7833815126669068 -0.7245419871371971 -0.3683052522151996 0.1754478871688216 -0.8036139198658736 1.172467117937085 -0.7380124025627032 -1.8734778097556042 0.09942513178816038 -0.9054809999837538 -2.1820802359861595 0.6546771635428589 -0.6869130684950642 0.26725009612170697 -1.2267548332100973 0.4620921013185058 0.11785902885904849 1.4954994937721722 -1.1874880885233214 2.1833757263826046 1.8966542439896872 1.4025127439945537 0.8043678917142241 1.1119344517830534 -2.6748431602622866 -2.4751669175215616 0.5337909683009487 -1.026185196115187 0.11440925388514595 -2.980287206498971 -0.21980088743835643 -0.30550855650559705 -0.5840561562477457 2.039567023628386 1.6010895892144046 0.5467195309399059 0.397914022482474 -1.3805677185326868 -2.8656015997810234 -0.5360968523315449 -0.47782722507854974 -0.5602740762952441 -0.3877868380217447 0.17455844424781458 -2.41235887475926 0.3419715333710329 2.3473770387515667 2.921071168510624 3.244945921263846 0.1375780066051685 -2.9168454205518017 -1.9684956279902361 -1.53994237701332 -0.006715901499573238 -1.618607202647432 -1.2281908424426695 0.5849499428253322 -0.42780414171178877 1.1246937981203313 2.465074275257562 0.6602881382998363 -2.2168154861797706 -0.4241711726289356 -1.1784156258711656 -0.5918975705195092 -0.6268236719314259 
0.24694502594693818 0.24367873908800583 -1.0600725619942508 -1.781791135971633 0.25047890468086387 -2.6534376553880135 -2.2486590185411344 -1.0329899000779954 -0.9132483514097637 0.8447324897712533 -0.0852643140135635 -2.1148762403000294 -0.6692670824053004 -0.18029897298689285 1.3130069887232467 2.718520971749702 1.8295174754218315 -1.343543287480641 -4.193994113042738 -3.1934030500138264 0.07886146165219336 1.444302156600147 0.44999892407812786 -0.9387616228789832 -0.3433777173290011 0.9558459132115559 -0.31734548091684034 0.8678340470874104 2.0892946223088775 1.0798735232711671 -1.5430148231337364 -4.254254558859674 -4.702596287977307 0.05359507946718913 0.7563943324237085 -0.5934525054590385 0.9093886688797777 -1.433641244642571 0.08077453798617183 1.2628811587078124 1.821411913332499 3.1067071081151427 0.9235523258372432 -1.784515956377698 -2.6731074281008067 -2.3779910340449977 1.153293279931693 1.438605201448021 1.2288086675330578 -2.982545398548638 0.4359069461627719 -1.0105657110383084 -0.1680736898624045 -0.07365302882889946 2.121877260243982 4.591341917943617 -1.6730435763319798 -4.409789186278038 -0.6723956140778343 0.46422314759831784 0.8751752336565004 -1.6960531515283113 0.9150049038434669 -2.410885514265096 0.7077285388303216 0.6621744330534372 -0.5616810829613905 0.977742476722163 0.044966778186366727 0.11709433218185235 -1.9270541084985737 -2.57165173185399 -0.24395228919716513 1.6020793349489186 1.2643915801140542 -2.9026334338709914 1.7264374670185414 0.8872679080582132 -1.2958027297067465 -1.5074958004716332 0.3787556908454101 1.4005758480341952 -0.5971193044862121 0.11269903642651471 -0.45555416616032657 0.731443238236737 1.2498352786338858 -0.19838161107793123 -1.5307283430975605 -2.306103776022147 -1.5281792511663272 0.4279685065196289 -0.47412559543001126 0.6281871216745843 0.268270594381564 0.6834070812115153 -0.8516790050096829 0.3936375079275302 1.5753390252125703 1.6085651767070646 0.12940536321881874 0.572114250893246 -0.9009331667957464 0.43909050052214754 1.187391527655468 0.17593251998661197 -0.09563191849080549 -1.1669057429986738 -0.07067297139385598 -1.3640174153216384 -0.8257942532362139 0.49851203334598315 1.9702204966117025 -2.4145957837124445 0.1853904407293423 0.1048073187818433 1.054962590269532 0.3563609113919827 -0.29713720255731463 -0.16814184281656142 1.3795558966015717 -2.648262662573302 -3.2887470277839475 -2.0814799614855373 1.7373386140041296 0.9280393053351578 -2.1456852230100227 -0.7925166765483913 -0.4063569100751002 -0.4107016584532655 -1.9238701511833005 -0.1466295509675163 2.0489357047136085 1.9576767786401827 1.689019302482072 -3.685075444316143 -0.9810493247230183 1.3210388857309874 2.538800471237702 -1.8364347367962572 -0.4973275563079524 0.5558377530277036 0.6314284155349149 0.27469849818134795 -0.19924636967182224 2.0395113975877504 -0.9835309963497106 -2.4449550262895987 -4.170811997857328 -1.1608645839228968 0.047671299314676174 0.06463168402187228 0.43332339329654274 2.572519826649634 0.5277054258649704 -0.07009172088362728 -0.6170969180873629 1.1029425001496664 0.6851960388510613 3.065380860529197 -0.45592090862356405 -2.6707448627008814 -0.2733477568048582 -1.3334372914010093 -2.513443032671172 -1.977101192944483 -0.6018317356285529 -2.195861569986971 -0.39159619669654344 
-0.12834152654674863 -0.1686231401132414 -1.5426012883028197 -0.5360257715421883 0.7858114103722258 0.527545278372317 2.115935497452113 1.068878381490288 -0.5543037070617097 -2.0824168303071686 -0.18374505602542845 -0.9233802639766293 -1.6221018276408277 1.097726549938737 0.26729792449297163 0.23285191633413038 -2.5595522655194793 0.2721985097106536 1.5202689187360052 0.334892881023049 -2.1989054077860017 -0.14608432317064116 -0.4678804389693713 0.47939965069438123 -1.7455792826059997 0.8030484497491285 0.5686660935714757 -0.4538793311919431 -0.7328579395803831 -0.257254851735432 -0.6450039008181432 1.760378031099879 -0.3316393729649954 0.21382255655678492 -2.2997316389756195 -0.5374634486680318 0.414953423662915 -0.9703116209872029 0.15065065504204114 1.61391940791338 -0.12428848642285391 0.2191791081397047 -1.281691194892728 1.8257663523406524 0.02239520612275824 -1.044238429984672 0.6028205052549838 -0.8780649828425133 -0.3733568729375249 -0.13326234530400927 -1.7928205305390954 0.2528468950769907 2.0792148428233674 0.4184808313229292 0.4169103640458194 -1.0033121541164096 0.8091129121778828 0.8030524136117888 -0.2550149111136418 -0.8212223203341898 -1.5405572820723799 -0.3044545839685921 1.3091505289722098 0.23567283443314457 -0.011172927266168291 -0.5343949084013316 0.6733983754736643 -1.3746258200459096 -0.9104387049158832 0.20716539949555615 0.40154618335976927 0.2721880575141774 0.3958979486042363 -2.0808152044659898 -1.6256316856292607 0.9618374249095621 -0.2818927953265097 -0.9958727045568464 0.0716520337662537 -0.4502669147832307 0.9243421736823633 -0.7564120972604211 -0.962753752404743 0.24837353897222655 0.4975663234099989 1.8863006039482877 -3.9551161031614988 0.2453443157630158 0.23669610106312017 0.29742041479549075 -0.1434550900533859 -0.5675681292476448 -0.42342552582995363 0.49250698422972083 -0.6950626958744395 -0.15488578599736713 -1.4734050346750782 2.776206541908067 0.15678305319687763 -6.584019234455452 1.091236595859362 1.1932030296479355 1.8763191308464289 0.1761143644822921 -0.3620565908258696 0.8244690134739485 0.0707939153254497 -2.2560631667766375 0.1119294969709172 -0.6699040125266399 3.51982409122289 -1.3579394242220775 -8.061948548179837 1.611805643925237 0.9015315164492803 0.7592336441485287 0.4831052857530421 1.6756542555513794 -0.21281464399673325 1.3830643335676662 -0.997034628077089 0.8614638022498833 0.9557018252445504 2.626144652968825 -3.0349310129352456 -9.044624976298213 0.9676142256732151 1.3227102222454734 2.8771820389968963 0.5645537835701564 -2.3606845927402644 0.6364338167348242 0.22798143656809683 -0.7019433863384825 0.7956297395471333 1.8279139631329926 3.47782848944958 -5.935988625371679 -8.850015757331033 3.00330203137718 1.2129003330443633 0.3253952898602061 0.5218422104548672 -0.06745863190235268 1.3153935406171937 0.9995006568563192 -0.4494083216760556 2.185178096443032 1.620468804033515 1.7629477542389862 -9.25084777284294 -4.596162350995104 -1.9474325002409982 0.6655983141361712 1.3865967447523406 0.4097032006470093 -1.0591970409420526 1.4117269799593186 -0.803502810439956 0.18509643458191746 1.460206654613476 1.1802493640629197 -1.4042235601947615 -6.249514396473967 -2.516237043408889 -0.9868823460808888 -2.2406976960798746 -1.2218910245591887 0.01366069671038971 
-0.27095216104362757 -0.586110373131859 -0.9643720292244347 1.2401403235648312 -1.2221131007264308 -1.9552086680588712 -0.9919490044351751 -0.49368568664300827 -3.3510696517754517 -0.8978291666003373 0.1564719405144395 0.0014082652304162194 0.4890500350502667 -0.18183618229408685 -0.8292913450100065 0.3891712813535236 1.2268238491100556 -1.6210602072876277 -1.1507963635181242 -1.3959013812814973 -1.6369674599606068 -0.420547966665569 -0.7742229342696001 0.5656071333033184 1.0465171894533079 -0.7434806572905557 0.2368430963723675 1.8030413598561217 0.6247614306461828 2.250553710776153 -1.6160237035282703 -1.9345142348775415 2.8427812757333184 -0.016222964168220038 -1.3874960783396024 0.7706613235829305 1.5530944809675633 0.1955532120214717 -0.782906030431119 0.39828368313828505 -1.3495882628394438 3.2899702902032155 1.5091262630760145 -2.097018163988632 -0.7933282296966017 1.9792690033303135 0.6435763885879789 0.7634724287441308 0.5092472502722432 0.5867705966647451 -0.1422410891875734 -1.2303183408114686 -0.7100221528152902 1.0434001446225456 0.7282482665274683 -0.679156939237781 -2.5098715051535763 1.4928823948999392 3.639804545265961 1.7081303272631023 2.707174689668336 1.4376242698072745 -1.0846406643490767 -1.1532222963039223 0.0038546577700401315 -0.26363777652621334 1.1426352360255538 2.0889690143357065 0.9620790957799238 -1.1662868010410787 1.1516948684290977 2.418110297978297 0.09969258810659268 4.084253447437592 0.6347984723720793 -1.103804949057742 -3.029973216829916 -0.8630971156276259 -1.090813511133355 0.365431476597337 -0.14458036195352406 -1.4979655215846537 -1.1583613436802143 0.8191846359602063 0.6457708300409469 2.012984853988045 1.052461642464082 0.7329859388576081 0.27293226868328146 0.4027731640073413 -2.111855173180462 1.462597487234781 0.727767192910458 -0.03775502072059703 0.8817699001169443 0.0551792427958448 -1.2765609385568069 -1.0661336368506569 -0.6175529591324804 -0.47732858326919 -0.5417166615198934 0.49673746459727347 0.0864213795495626 -0.10521622119000162 -0.6491213969295144 -0.055944426690353884 3.654102588828299 0.17831674690918284 -2.4565708854554544 -0.4624211895215693 -1.7531443062791776 -5.362704438881367 -2.59192198079702 -3.1000718605198725 -1.8868654008179573 -0.20241289980822338 0.13287526932675556 -0.4124403182333531 0.7242970971162037 1.8789435666945171 -3.7484184020417883 -0.09592508925713265 0.16196839847809447 -2.721202639742041 0.2510020798964063 -1.7371501300072825 -3.077456744311721 -0.9570653844064632 -1.4099089521091361 -1.8744535147131198 -0.5742146783443333 -1.0444309156647618 0.4542244426309247 -2.9704552154592703 -1.864471613669189 0.5848525214764277 -1.2302940068896888 -0.15844398478202198 -1.6066538823911014 -1.3777694297997949 -1.1080451192092808 -1.5951751930498683 1.1612219768474528 -1.0140781511648924 -0.5933751718449065 -1.4670052119392145 -4.0238363191973985 1.3906795458794807 1.973664005748138 0.5716504946934186 -1.6591498537612452 -2.1023723256588926 0.13265062635761093 -1.481515122432668 -2.320634783048699 0.2718938450953964 0.1688704743281236 0.2345827372344477 -0.4824742190958741 -1.794805151399253 -2.203455325784862 2.02704386151186 -0.5819016401434876 0.6435531813563663 -1.527608127127849 0.8549934519883182 1.1709329379482993 -0.25713498918365457 -0.039433379609152525 
0.008593937972226861 0.789206339535515 0.13120653923045114 0.12976420903889582 0.7192448571355935 -1.200357963607443 -2.1217071490389148 0.899928239184723 0.07244961312677685 3.338808065921185 1.6209399504489728 1.3629899943602342 -0.0870935892097641 -0.34628216493432695 0.07959173306475996 0.19962924789470238 0.5756157845371872 -1.9466227985167088 0.015673583318498045 -3.809410785492416 2.434653471247991 0.40312947225255297 1.2591386463143739 1.4010069805343608 -1.5512821788638207 -1.0710835854639047 0.10058097570316744 -0.6459628442209447 -1.0433644348753048 -1.9351217559812353 1.466622865845123 0.374885848766092 1.3940908905624614 0.017961429605847973 3.9691154122754195 1.6772618274730822 0.10303069874615202 1.6178983494545613 -0.7922532925989507 0.44726169489514284 -0.3094763515134107 -2.738231247131573 1.4195477430057752 -3.540752471777268 -0.6870385548010897 0.7577608670034434 0.6610969117268722 2.41707110091904 -1.2219622445798777 -0.6101288150636922 3.3935477691619322 2.5803693932222314 0.13860481547148892 2.4987709431066394 -1.410244508154833 -3.678293695615316 -1.9305884948855394 -0.6684454904632916 -0.5919855532482805 3.284214852701267 5.74523113373777 1.5237782854607405 -0.5674956039550872 2.386468477636245 3.2580863640068465 0.44089351441505364 -0.8245495138076769 -1.3620092027720205 -0.08530956885928674 -1.2491739268541717 -2.8328759381790842 -3.9455499805154104 0.8194818416150516 5.713488093922462 4.926364807966727 -0.1754351488364821 1.8650018833354716 3.351469393256159 -1.7335314640151671 -4.163658855062756 -2.132674025957569 -2.192053702278865 -2.7255331204615896 -4.313342156185459 -12.570587909913762 -6.791551164255938 2.2726606744772964 5.948614740626549 0.4729800306008294 4.636364384926802 1.2246749885693304 0.12292606468244127 -1.9925201267301476 -0.09202035549732471 0.314747401594088 -3.2212779932589357 -0.7145383849831178 -3.4136515445664033 -7.226785218018225 1.4698434297213236 2.906433256447257 4.385748244581407 0.5169169219333373 -0.7360015854710451 -0.11809772129699818 -0.2603403864740221 -0.6135483536897847 1.2705519726833916 0.7970276192189819 -0.365675907277276 -4.313627588973495 2.1575171968135654 1.6511600349239917 0.31131163150759567 -0.6085162574885555 2.1363801430415954 1.106673889752637 -0.19635821409215604 0.10111918729374825 -1.0954667568867331 -1.0651189222201425 0.07777334332094633 0.6134935778143039 2.0406954135550057 0.4508062069259535 -0.2548798049945855 -0.7699055122131229 1.5595533686284024 2.419307196571277 2.2074302698386816 -0.7898350628555718 0.7342485029165731 -1.9522014410504107 -1.8185243271528533 2.6437407126456822 2.3485934760925216 0.18008764339250946 0.008658697168822832 -0.4586202108919019 -2.4959196767525134 -3.3622768795770783 -1.6064346242074212 -0.30512411667810935 -0.16447277732013643 -1.9085717177352577 -1.1854594384899453 0.8860976757182424 0.5963071888615453 -0.4585805316639418 0.5119336415385475 1.3040339007324988 -3.2320013447719558 0.41964238501099327 1.273123477379135 -0.1694152956859833 -2.424959045184961 -0.18316926683636225 -0.5201281682139663 0.018021154565266425 -0.8200892182389429 -0.7143779104014102 2.451105328053382 2.1543129206169422 0.9674864529724425 -0.40063005563968723 0.40608610982620114 0.005052721872642665 -2.0972004447811785 -0.1136534106629229 
-0.007640117768740585 0.532238304378794 -0.25135433536428164 0.8002037873485596 1.586640465621339 2.1129146808800168 2.169903800826828 0.06812447723244373 0.3464795002371212 -1.0500868044746008 -1.5631934246797665 0.4301459169354172 2.045820664533534 0.42395936227594194 1.0498871633762297 1.1580343381138245 1.725793408296104 3.3439989106901087 3.3446517073627904 3.0592048045251783 3.424981941990798 -1.9769457037961056 0.15016283521756793 0.782872871246536 -1.6213097900841251 1.1644649614317586 0.865024702415696 1.685935676861799 1.5224895636076805 4.123529480500103 3.98044820955209 2.3077574208162455 5.25923079040368 1.3170010804792676 -2.1681438752111446 -0.4109891218976984 1.3096988588982708 -1.8087219045335308 0.8951287839108714 0.594903894103737 3.81441078236526 1.8108471092839276 1.4004951967102632 3.9261629176440738 4.729592529139248 1.9219740558305478 1.004664176875508 -0.46810477438497844 -0.22009447151399558 0.5810792818187951 1.0775956374864144 1.0641322656046082 0.626692099181561 3.957560789243396 1.260359495086048 -0.23149017435228003 0.6967684318081504 -0.34114668121380587 1.6375168710801544 0.9201572387943135 -0.7425528824584957 -0.8768760028776625 0.24603902918952122 0.8189515442352264 -0.7606716294098268 1.5118008544163681 -0.4033244920562329 0.383323433199898 0.04809824426658494 2.149065384128137 -1.1583052266875484 -0.7555373053887561 1.215577380253055 -1.8878012471431034 -2.697458389964109 0.6217102130178793 -1.6420949076743305 0.5075913648816454 0.5346682670002659 0.910773213928442 -0.875325965429684 -0.36425467037375964 0.5387034358170146 -0.42802407052194963 -1.6487767887795457 -5.229412034954642 -2.9276395443175676 -1.0394454583502066 -1.0661743553266088 -0.7297747880569975 -1.128783172398047 1.0350156107861572 0.49296006683177324 0.9852615721822541 -0.3889660004119084 2.9490656586582435 0.46143899488811624 -0.15136410266567094 -1.4353845570756687 2.058914500906586 -0.24622391182220044 -1.9342021257559074 -0.9214263306710172 -0.7172228684854614 -0.47828031114395064 1.6957044781067832 -1.0151089773696642 1.6586881038467125 4.069336743003361 0.5855337617725802 -0.7639073113600572 0.2448691421331424 1.5866575218926837 0.5365835534784813 -0.9724213485937988 0.7537355153933235 1.2713246686529962 -0.9885869304050154 -0.4548819568063831 -2.923579662665765 1.7504804272583356 0.4911459632191884 0.8482117448538025 0.4897863866511403 3.161491484151059 0.7742716413728459 -0.32823477158084385 -1.4363780370384684 -1.3786051127709484 -0.005070539434691091 -0.49210954226834325 -0.020360855938368998 -0.9314633719414355 0.21216660148558544 1.4417663037077888 1.0896838607193382 -1.476985837489135 2.782158690018762 2.1589712451512395 -1.7964878873367323 -0.015272612685195057 0.6940315286221086 -0.21831244421626506 -0.7488539517708553 0.34149813687252056 0.9979355812161208 -1.7633815111022535 -0.5364385610242459 1.3292537743835622 1.5731026566756605 2.0272349886252075 2.197112058665026 -0.38614470546357327 -3.2108352377364833 -2.6635419724031086 -0.47067133657591853 0.6679297587040386 1.0341131116728277 -0.3002344081224777 -1.2308816323466225 -0.5041143739927819 0.8615957188622219 1.9334494912583848 -1.1467922342257335 -0.07391234832265531 -0.2325724643347752 -0.19145528784484375 0.7728061157332325 -0.20851398850989578 
0.007900686647288732 0.4326196614466045 -0.07137109578932575 -1.0026462625049355 1.9348889898596622 1.0631376723242332 1.5388333430183474 1.4591324058411266 -1.038833991134054 -2.7297610701307 0.728666937762942 -1.116527951820692 -2.7719482885247984 -0.04134388684711536 -1.438467222771424 -2.1078251597061692 -2.4314474170708142 -0.9282993776888931 0.12203674903404403 5.140217833096601 1.2465332882886269 -0.16513345878036717 -0.7971617197956781 -0.6860088733490001 -1.1192216173147518 0.7995733920737607 -1.0383862870463936 -2.023858431882831 -2.5265317092962025 0.20659704868986212 1.468540144181185 0.5507328811944073 0.9430768640761991 -2.333863411840193 1.0978802351058892 -0.8972326115266233 0.7911519869801937 -0.8231274044229496 -1.7872453134833055 -1.3463798573486105 1.3723497840183827 -3.1065811178242764 -0.9707771665413195 2.9800548251207912 3.71532894475566 2.5045054953842536 0.5999266434564654 -1.2469567114389462 -1.5587749440979313 -1.5937886162377761 -1.5943053745994311 0.5886070298799896 1.4243250651020385 2.605191459713099 -0.4596302436348905 -0.748148841047162 0.34571865499323784 0.8425936849548357 1.8025198210221298 -3.575047183897497 -2.8757219663390963 0.6689783138704377 -1.0665426385154975 -2.398571567301368 1.8043476283694404 3.5762892452546886 1.42518031015074 3.8718508190075647 3.665876077146355 1.5382827539415305 1.0935780954980727 0.0027487422058892104 -2.9030053057399283 -2.4591630210748168 -2.2541110258177888 -0.8905150760845788 -2.398619676112056 -1.5838998924285907 1.2354239111511192 0.6273813215594033 2.671162464017383 0.4267246605711177 2.338848411445471 1.3125097320218753 -0.2079491642030594 -2.84724919115773 -1.742565433454033 0.4660325672048528 -1.09413279862956 -2.1508276310377097 -1.3300955155524858 -0.36206548427799107 4.620723355411451 5.22419217526993 1.9827397060157455 0.03468798528287781 0.6243861717963619 -0.013148636121943802 -1.9385815106419542 -0.9376101780510557 -1.2536085598126885 -1.6373298631961595 -2.927241012625424 0.3481000332044345 1.3481614483818547 3.7889571239826214 1.8454936143718237 -0.6284924527250343 0.27383746334798403 -0.7919401757701933 0.9938331363033036 -1.1830216356260523 -2.2686260777570433 -1.6852853623320558 -0.1824299766569544 -0.1862019727558004 1.231504251793467 2.4839116343589986 1.958693468077495 0.9003572990616469 -2.0578629103374837 1.3512440052754202 2.955827757853628 -0.873432521300624 -0.2339353112469803 -0.24012681071948302 -1.2385881345597372 -1.136114138878813 -1.9759572840975668 0.6707207265777628 -1.6380245151127917 -0.04398399957475695 -1.6685597939942958 -1.9833463054845366 -3.0619854712739416 -1.7575001116150766 0.8022934964697439 1.076073722863769 1.2893729670231036 1.0431976191394874 -0.28590845173138657 0.8090147341324697 -0.14254498341148392 -1.9026764992917873 -0.34905822875381043 -0.83739214806489 -3.4475456188605076 0.11114182188429973 -0.7060297275932039 0.1941318846820639 0.7715882676976547 1.8320614345386532 0.5591250966120485 1.79083367699195 1.975363247529761 0.006391620249361281 -1.00341689148561 -0.17433376616288757 -2.162694101936848 -2.585291337546314 0.30704711446661825 1.6679583019976063 0.7921938977730135 -1.4509655499409944 0.46812240997665555 -0.5854695672085736 1.2192498219093553 2.526992918377386 0.6539870864006578 
-0.2754667082711198 -0.49533497054164216 -0.6134707709434 1.2638338624111667 -0.4328571780377642 -1.3007067463217272 0.4761724264584874 0.6300018714881012 -1.6157403295462236 -0.34318782802417536 -0.3279008817123247 -0.49536131635329766 -1.0434419814343674 -1.4648470262715525 0.7734087359201922 -1.2574587576913874 -0.005941390608372663 1.9960654300357423 -0.5136350341203526 -0.45059026705862154 -1.372246986165004 -1.3159555383628019 0.2556462215947116 0.5072904494359148 -1.4824216999533038 1.345879348927997 0.045286139841959686 0.8002914841849788 0.0039245954845683806 0.41411302227033947 3.889679867908015 -0.9611159491670145 -3.3586201687283572 -1.648722344893126 -0.7888869076678103 0.6274535419001508 0.021050037441209177 -0.048021606936011 -0.8005551747740141 -1.724970551978125 0.5412152888717753 -1.6714873391954914 1.5022960917093673 2.8093021888109657 -0.9525182623248388 -5.0191781224149254 -0.06521336403397317 1.3758070833844422 -0.8297452536192732 1.149392706144632 0.8485489116209265 -0.24491019000621173 -2.2071844392769115 -1.4498510833138847 -0.05238510352157283 4.255728131337066 3.3163311257795547 -4.433936103738039 -3.5169083457498758 -0.9819298487658238 0.2298384210596577 -0.7396546525994654 -1.1262448592594223 -0.7275269800819075 0.4298415990630854 -2.2834463809904397 -0.31689579396440337 1.0772601885531627 3.919852414050005 1.8071995540241057 -2.769874889324448 -3.3961586200685985 -1.5763754619363812 -1.3775492652826258 0.4535357440336351 0.9828049635617678 -0.1807604204290255 -0.22382465872941218 -1.995959024786485 -0.16663130818674116 -0.10953987136345579 2.7143883395614736 0.8728901801283945 -3.234077805748168 -1.106900170999449 -0.9052016175867685 0.05455605733976831 0.9324340650400335 -0.8291556253036801 0.03346775517399688 -0.7426464545698972 -2.3568690884372936 -1.0473309204326868 1.2049719612425063 1.4260409244495298 2.2359395382518734 0.2750448412802037 -0.2507921941986365 -2.4321876067152197 -2.293328251787308 -0.23155382995470536 -1.1141881334603727 0.43489045179394936 -2.305029737303229 -5.716556480501425 -3.414183322766409 0.6775691088222141 1.2444743067414683 1.6732009238927188 -0.03612702474811633 0.1785461428083491 -1.557990800706643 -0.34206798125968985 -0.103661628940862 0.9724317877040731 -0.671862517651042 -0.2093819138614448 -1.086248255992677 -1.941582079948766 -1.3004291135078294 -1.9785486087458621 -0.618012599174672 0.545333442518333 -0.5286886180625023 -1.4138931561917014 -0.06267247658683596 0.34322082283120675 -1.0800973925744077 -0.3700070109157288 -0.14491107806854056 -0.2508677097501506 -0.7465520568028026 -1.1129534260769114 -0.4337127303331892 -0.29506573804562697 2.0050500064402423 -0.0033409421405602197 -1.4410842549137475 0.951479116028982 2.871183642675022 -1.5385697305410837 1.7459452804442988 -0.039111693118762156 0.019003925562829475 -1.1450031401691663 -1.4898401295964179 0.9886802301537961 -1.7953043228221306 -1.373520069042267 -3.288454616036393 -1.2830047459009712 -0.5605501021643277 0.15655604703061848 0.6944944935038392 -0.030990788368488974 -0.5230791659840377 -1.0283769654787385 -0.19665007188691402 -0.14154739064604913 0.5825694563381212 -1.4452910017639822 -0.6101088855484821 -1.9410869463073956 -1.7555563710900606 -0.7743961842578143 0.13302709465522944 1.11295109709171 -0.9082700739098921 -0.35155295302580564 
